{"learner":{"attributes":{},"feature_names":["gpa","attendance_rate","completion_ratio","year_of_study","age"],"feature_types":[],"gradient_booster":{"model":{"cats":{"enc":[],"feature_segments":[],"sorted_idx":[]},"gbtree_model_param":{"num_parallel_tree":"1","num_trees":"50"},"iteration_indptr":[0,1,2,3,4,5,6,7,8,9,10,11,12,13,14,15,16,17,18,19,20,21,22,23,24,25,26,27,28,29,30,31,32,33,34,35,36,37,38,39,40,41,42,43,44,45,46,47,48,49,50],"tree_info":[0,0,0,0,0,0,0,0,0,0,0,0,0,0,0,0,0,0,0,0,0,0,0,0,0,0,0,0,0,0,0,0,0,0,0,0,0,0,0,0,0,0,0,0,0,0,0,0,0,0],"trees":[{"base_weights":[-9.459372E-8,9.370201E-1,-5.066131E-1,1.4457881E0,4.0648004E-1,-8.645755E-2,-7.727541E-1,1.7110031E0,9.4293106E-1,6.095725E-1,-2.60826E-1,3.620858E-1,-2.866049E-1,-3.993247E-1,-9.127323E-1,2.2699776E-1,1.4214252E-1,1.4219077E-1,1.8186977E-2,7.51911E-2,5.6117894E-3,-9.799133E-3,-6.4471155E-2,4.5045167E-2,-7.316541E-2,1.732881E-2,-4.6168283E-2,1.1247414E-2,-6.362311E-2,-7.6151535E-2,-1.045623E-1],"categories":[],"categories_nodes":[],"categories_segments":[],"categories_sizes":[],"default_left":[0,0,0,0,0,0,0,0,0,0,0,0,0,0,0,0,0,0,0,0,0,0,0,0,0,0,0,0,0,0,0],"id":0,"left_children":[1,3,5,7,9,11,13,15,17,19,21,23,25,27,29,-1,-1,-1,-1,-1,-1,-1,-1,-1,-1,-1,-1,-1,-1,-1,-1],"loss_changes":[4.30906E2,8.539569E1,6.581587E1,2.002124E1,2.1481007E1,2.071665E1,1.8483505E1,1.3765778E1,2.0972454E1,9.483536E0,2.2753427E0,7.2191935E0,1.2908137E1,1.2206948E1,4.4584503E0,0E0,0E0,0E0,0E0,0E0,0E0,0E0,0E0,0E0,0E0,0E0,0E0,0E0,0E0,0E0,0E0],"parents":[2147483647,0,0,1,1,2,2,3,3,4,4,5,5,6,6,7,7,8,8,9,9,10,10,11,11,12,12,13,13,14,14],"right_children":[2,4,6,8,10,12,14,16,18,20,22,24,26,28,30,-1,-1,-1,-1,-1,-1,-1,-1,-1,-1,-1,-1,-1,-1,-1,-1],"split_conditions":[2.46E0,6.4E-1,2.96E0,2.16E0,8.0833334E-1,7.1666664E-1,7.75E-1,5E-1,7.416667E-1,2.33E0,8.1E-1,8.9E-1,6.6E-1,7.1E-1,3.39E0,2.2699776E-1,1.4214252E-1,1.4219077E-1,1.8186977E-2,7.51911E-2,5.6117894E-3,-9.799133E-3,-6.4471155E-2,4.5045167E-2,-7.316541E-2,1.732881E-2,-4.6168283E-2,1.1247414E-2,-6.362311E-2,-7.6151535E-2,-1.045623E-1],"split_indices":[0,1,0,0,2,2,2,1,2,0,1,1,1,1,0,0,0,0,0,0,0,0,0,0,0,0,0,0,0,0,0],"split_type":[0,0,0,0,0,0,0,0,0,0,0,0,0,0,0,0,0,0,0,0,0,0,0,0,0,0,0,0,0,0,0],"sum_hessian":[9.0573126E2,3.1754938E2,5.881819E2,1.6122017E2,1.5632921E2,2.2860657E2,3.5957532E2,1.0397794E2,5.7242214E1,1.19918816E2,3.6410397E1,7.0284744E1,1.5832182E2,9.9087E1,2.604883E2,3.3149765E1,7.0828186E1,3.4598934E1,2.2643282E1,9.510178E1,2.4817036E1,2.6447351E1,9.963044E0,6.557494E1,4.7098026E0,4.3656246E1,1.1466557E2,3.1519447E1,6.756755E1,1.2499091E2,1.3549739E2],"tree_param":{"num_deleted":"0","num_feature":"5","num_nodes":"31","size_leaf_vector":"1"}},{"base_weights":[-1.8379989E-3,8.032853E-1,-4.7020167E-1,1.1341351E0,2.4049272E-1,-7.888893E-2,-7.2736245E-1,1.2896355E0,4.3411994E-1,4.5110664E-1,-1.03671975E-1,7.226744E-1,-1.7693211E-1,-3.6830026E-1,-8.65778E-1,2.136327E-1,1.16257094E-1,5.8927387E-2,-4.0228676E-2,2.955827E-2,9.4345525E-2,2.7073443E-2,-2.9132297E-2,1.5648691E-1,2.002077E-2,-6.268696E-3,-6.675695E-2,1.0096337E-2,-5.942249E-2,1.2633318E-2,-8.831374E-2],"categories":[],"categories_nodes":[],"categories_segments":[],"categories_sizes":[],"default_left":[0,0,0,0,0,0,0,0,0,0,0,0,0,0,0,0,0,0,0,0,0,0,0,0,0,0,0,0,0,0,0],"id":1,"left_children":[1,3,5,7,9,11,13,15,17,19,21,23,25,27,29,-1,-1,-1,-1,-1,-1,-1,-1,-1,-1,-1,-1,-1,-1,-1,-1],"loss_changes":[3.4210846E2,6.1855255E1,5.766086E1,2.2284302E1,9.092996E0,1.8091255E1,1.6876755E1,1.5935944E1,5.382847E0,5.663748E0,3.4647074E0,1.0734716E1,1.1419252E1,1.0450489E1,4.399658E0,0E0,0E0,0E0,0E0,0E0,0E0,0E0,0E0,0E0,0E0,0E0,0E0,0E0,0E0,0E0,0E0],"parents":[2147483647,0,0,1,1,2,2,3,3,4,4,5,5,6,6,7,7,8,8,9,9,10,10,11,11,12,12,13,13,14,14],"right_children":[2,4,6,8,10,12,14,16,18,20,22,24,26,28,30,-1,-1,-1,-1,-1,-1,-1,-1,-1,-1,-1,-1,-1,-1,-1,-1],"split_conditions":[2.46E0,6.8E-1,2.96E0,7.888889E-1,7.6666665E-1,5.6E-1,7.75E-1,4.3E-1,2.3E1,7.1666664E-1,2.1E1,2.1E1,8.6E-1,7.1E-1,5.5E-1,2.136327E-1,1.16257094E-1,5.8927387E-2,-4.0228676E-2,2.955827E-2,9.4345525E-2,2.7073443E-2,-2.9132297E-2,1.5648691E-1,2.002077E-2,-6.268696E-3,-6.675695E-2,1.0096337E-2,-5.942249E-2,1.2633318E-2,-8.831374E-2],"split_indices":[0,1,0,2,2,1,2,1,4,2,4,4,1,1,1,0,0,0,0,0,0,0,0,0,0,0,0,0,0,0,0],"split_type":[0,0,0,0,0,0,0,0,0,0,0,0,0,0,0,0,0,0,0,0,0,0,0,0,0,0,0,0,0,0,0],"sum_hessian":[9.0523004E2,3.3266293E2,5.725671E2,2.0886307E2,1.2379987E2,2.2757729E2,3.4498978E2,1.7021045E2,3.865262E1,7.660822E1,4.7191654E1,2.410806E1,2.0346922E2,9.700671E1,2.4798308E2,2.0147211E1,1.5006325E2,3.2853706E1,5.798911E0,5.9434345E1,1.7173876E1,1.5607797E1,3.1583857E1,8.466025E0,1.5642035E1,1.6595442E2,3.7514805E1,3.1705318E1,6.530139E1,4.1564918E0,2.4382658E2],"tree_param":{"num_deleted":"0","num_feature":"5","num_nodes":"31","size_leaf_vector":"1"}},{"base_weights":[-2.7800887E-3,6.546145E-1,-4.6539146E-1,9.963839E-1,2.902087E-1,4.73703E-2,-6.214048E-1,1.182854E0,4.8338875E-1,4.2483318E-1,-3.0257434E-1,1.715858E0,-4.628597E-2,-4.4525385E-1,-9.5307016E-1,1.5713239E-1,9.8385945E-2,1.1009891E-1,2.2482472E-2,6.43691E-2,1.9219508E-2,7.314986E-3,-4.4642717E-2,3.8130887E-2,2.5149128E-1,2.6922816E-2,-2.890308E-2,-3.121503E-2,-7.726506E-2,-9.510412E-3,-9.739521E-2],"categories":[],"categories_nodes":[],"categories_segments":[],"categories_sizes":[],"default_left":[0,0,0,0,0,0,0,0,0,0,0,0,0,0,0,0,0,0,0,0,0,0,0,0,0,0,0,0,0,0,0],"id":2,"left_children":[1,3,5,7,9,11,13,15,17,19,21,23,25,27,29,-1,-1,-1,-1,-1,-1,-1,-1,-1,-1,-1,-1,-1,-1,-1,-1],"loss_changes":[2.7504324E2,4.6234634E1,4.249521E1,1.7828537E1,1.4668846E1,1.9575598E1,2.335817E1,9.306183E0,8.211341E0,7.4573326E0,1.8868058E0,6.1403046E0,9.200132E0,1.1426514E1,2.4215012E0,0E0,0E0,0E0,0E0,0E0,0E0,0E0,0E0,0E0,0E0,0E0,0E0,0E0,0E0,0E0,0E0],"parents":[2147483647,0,0,1,1,2,2,3,3,4,4,5,5,6,6,7,7,8,8,9,9,10,10,11,11,12,12,13,13,14,14],"right_children":[2,4,6,8,10,12,14,16,18,20,22,24,26,28,30,-1,-1,-1,-1,-1,-1,-1,-1,-1,-1,-1,-1,-1,-1,-1,-1],"split_conditions":[2.52E0,6.4E-1,6.8E-1,2.25E0,8.25E-1,4.6E-1,3.39E0,5E-1,6.5E-1,2.17E0,2E0,2.78E0,7.583333E-1,8.7E-1,6.4166665E-1,1.5713239E-1,9.8385945E-2,1.1009891E-1,2.2482472E-2,6.43691E-2,1.9219508E-2,7.314986E-3,-4.4642717E-2,3.8130887E-2,2.5149128E-1,2.6922816E-2,-2.890308E-2,-3.121503E-2,-7.726506E-2,-9.510412E-3,-9.739521E-2],"split_indices":[0,1,1,0,2,1,0,1,2,0,3,0,2,1,2,0,0,0,0,0,0,0,0,0,0,0,0,0,0,0,0],"split_type":[0,0,0,0,0,0,0,0,0,0,0,0,0,0,0,0,0,0,0,0,0,0,0,0,0,0,0,0,0,0,0],"sum_hessian":[9.023942E2,3.725568E2,5.2983746E2,1.913546E2,1.812022E2,1.23764114E2,4.0607333E2,1.3938379E2,5.1970814E1,1.478972E2,3.3304993E1,5.6573606E0,1.1810675E2,2.6674484E2,1.3932849E2,4.487811E1,9.450568E1,1.4375565E1,3.759525E1,7.5295204E1,7.2602E1,9.357074E0,2.3947922E1,2.6719604E0,2.9854002E0,5.1308304E1,6.6798454E1,1.9103339E2,7.571144E1,3.4425013E0,1.3588599E2],"tree_param":{"num_deleted":"0","num_feature":"5","num_nodes":"31","size_leaf_vector":"1"}},{"base_weights":[-3.2445334E-3,5.7362276E-1,-4.315707E-1,8.0795383E-1,1.7572856E-1,-7.662873E-2,-6.4855605E-1,9.387969E-1,2.2047056E-1,1.2546726E0,1.2562317E-1,9.869822E-1,-1.4520848E-1,-3.2049692E-1,-7.901716E-1,1.5454626E-1,8.449669E-2,3.8716562E-2,-7.229298E-2,3.4926098E-2,2.1500276E-1,2.61318E-2,-1.44718485E-2,4.621316E-2,1.739646E-1,2.5917668E-2,-3.1129435E-2,-1.683908E-2,-8.9587264E-2,1.7763192E-2,-8.085415E-2],"categories":[],"categories_nodes":[],"categories_segments":[],"categories_sizes":[],"default_left":[0,0,0,0,0,0,0,0,0,0,0,0,0,0,0,0,0,0,0,0,0,0,0,0,0,0,0,0,0,0,0],"id":3,"left_children":[1,3,5,7,9,11,13,15,17,19,21,23,25,27,29,-1,-1,-1,-1,-1,-1,-1,-1,-1,-1,-1,-1,-1,-1,-1,-1],"loss_changes":[2.223754E2,3.5615044E1,3.9728653E1,1.832431E1,7.5957885E0,1.45191555E1,1.4632004E1,9.900055E0,7.391106E0,4.318551E0,5.106307E0,3.9626513E0,1.2574224E1,8.451228E0,4.110199E0,0E0,0E0,0E0,0E0,0E0,0E0,0E0,0E0,0E0,0E0,0E0,0E0,0E0,0E0,0E0,0E0],"parents":[2147483647,0,0,1,1,2,2,3,3,4,4,5,5,6,6,7,7,8,8,9,9,10,10,11,11,12,12,13,13,14,14],"right_children":[2,4,6,8,10,12,14,16,18,20,22,24,26,28,30,-1,-1,-1,-1,-1,-1,-1,-1,-1,-1,-1,-1,-1,-1,-1,-1],"split_conditions":[2.52E0,6.8E-1,2.96E0,7.888889E-1,1.42E0,5.1E-1,7.8333336E-1,4.3E-1,2.39E0,7.6E-1,7.777778E-1,2.78E0,7.1666664E-1,8.8E-1,5.5E-1,1.5454626E-1,8.449669E-2,3.8716562E-2,-7.229298E-2,3.4926098E-2,2.1500276E-1,2.61318E-2,-1.44718485E-2,4.621316E-2,1.739646E-1,2.5917668E-2,-3.1129435E-2,-1.683908E-2,-8.9587264E-2,1.7763192E-2,-8.085415E-2],"split_indices":[0,1,0,2,0,1,2,1,0,1,2,0,2,1,1,0,0,0,0,0,0,0,0,0,0,0,0,0,0,0,0],"split_type":[0,0,0,0,0,0,0,0,0,0,0,0,0,0,0,0,0,0,0,0,0,0,0,0,0,0,0,0,0,0,0],"sum_hessian":[8.9798505E2,3.8249872E2,5.154864E2,2.4007892E2,1.424198E2,1.9608542E2,3.1940094E2,1.9585951E2,4.4219406E1,5.2534738E0,1.3716632E2,1.1066233E1,1.8501918E2,9.728915E1,2.221118E2,2.416269E1,1.7169682E2,3.8080364E1,6.139041E0,3.3032262E0,1.9502474E0,9.134842E1,4.5817898E1,7.470717E0,3.5955155E0,5.370296E1,1.3131622E2,7.796976E1,1.9319393E1,3.975875E0,2.1813593E2],"tree_param":{"num_deleted":"0","num_feature":"5","num_nodes":"31","size_leaf_vector":"1"}},{"base_weights":[-3.4130225E-3,5.058741E-1,-3.9987555E-1,7.575567E-1,2.2631244E-1,-2.3250541E-1,-8.322177E-1,1.1717815E0,5.916444E-1,3.490079E-1,-2.0994435E-1,1.5016183E-1,-3.7445483E-1,6.483476E-2,-8.4933513E-1,1.2714865E-2,1.2252515E-1,6.891144E-2,1.6621E-2,4.706043E-2,2.1364505E-3,-7.878216E-3,-5.517087E-2,2.7036985E-2,-7.341652E-2,6.955429E-2,-4.1001815E-2,-6.732502E-2,-9.804983E-2],"categories":[],"categories_nodes":[],"categories_segments":[],"categories_sizes":[],"default_left":[0,0,0,0,0,0,0,0,0,0,0,0,0,0,0,0,0,0,0,0,0,0,0,0,0,0,0,0,0],"id":4,"left_children":[1,3,5,7,9,11,13,15,17,19,21,23,25,-1,27,-1,-1,-1,-1,-1,-1,-1,-1,-1,-1,-1,-1,-1,-1],"loss_changes":[1.8061299E2,2.7377953E1,3.6201363E1,1.3437973E1,1.0078728E1,1.982743E1,4.098274E0,3.0718842E0,6.057228E0,5.817314E0,1.8238366E0,1.0743632E1,1.0398891E1,0E0,2.5459137E0,0E0,0E0,0E0,0E0,0E0,0E0,0E0,0E0,0E0,0E0,0E0,0E0,0E0,0E0],"parents":[2147483647,0,0,1,1,2,2,3,3,4,4,5,5,6,6,7,7,8,8,9,9,10,10,11,11,12,12,14,14],"right_children":[2,4,6,8,10,12,14,16,18,20,22,24,26,-1,28,-1,-1,-1,-1,-1,-1,-1,-1,-1,-1,-1,-1,-1,-1],"split_conditions":[2.52E0,6.4E-1,3.39E0,1.78E0,8.0833334E-1,7.222222E-1,4.8E-1,1.9E1,8E-1,2.33E0,8.1E-1,8.7E-1,5.2E-1,6.483476E-2,8.5E-1,1.2714865E-2,1.2252515E-1,6.891144E-2,1.6621E-2,4.706043E-2,2.1364505E-3,-7.878216E-3,-5.517087E-2,2.7036985E-2,-7.341652E-2,6.955429E-2,-4.1001815E-2,-6.732502E-2,-9.804983E-2],"split_indices":[0,1,0,0,2,2,1,4,2,0,1,1,1,0,2,0,0,0,0,0,0,0,0,0,0,0,0,0,0],"split_type":[0,0,0,0,0,0,0,0,0,0,0,0,0,0,0,0,0,0,0,0,0,0,0,0,0,0,0,0,0],"sum_hessian":[8.92506E2,3.9054477E2,5.0196124E2,2.0462027E2,1.859245E2,3.6298047E2,1.3898077E2,5.678509E1,1.4783519E2,1.4526836E2,4.065614E1,9.8198654E1,2.647818E2,1.1669816E0,1.378138E2,2.9295213E0,5.385557E1,1.1977428E2,2.8060904E1,1.0563013E2,3.9638233E1,3.0269743E1,1.0386395E1,8.705887E1,1.113979E1,7.920449E0,2.5686136E2,6.145034E1,7.636345E1],"tree_param":{"num_deleted":"0","num_feature":"5","num_nodes":"29","size_leaf_vector":"1"}},{"base_weights":[-3.8626208E-3,3.0681375E-1,-5.5695003E-1,5.836225E-1,3.1662982E-2,-1.5599835E-1,-6.8357164E-1,1.0727916E0,4.7059423E-1,6.010897E-1,-7.5448066E-2,6.655869E-1,-3.560418E-1,-5.425955E-1,-8.9555925E-1,1.2355381E-1,3.7136216E-2,1.0977407E-1,3.9581653E-2,-3.8901556E-2,7.319738E-2,5.956217E-4,-5.157745E-2,1.5155031E-1,4.676952E-2,5.212013E-2,-4.237565E-2,-3.1695973E-2,-6.525989E-2,-7.776674E-2,-9.6223414E-2],"categories":[],"categories_nodes":[],"categories_segments":[],"categories_sizes":[],"default_left":[0,0,0,0,0,0,0,0,0,0,0,0,0,0,0,0,0,0,0,0,0,0,0,0,0,0,0,0,0,0,0],"id":5,"left_children":[1,3,5,7,9,11,13,15,17,19,21,23,25,27,29,-1,-1,-1,-1,-1,-1,-1,-1,-1,-1,-1,-1,-1,-1,-1,-1],"loss_changes":[1.5269969E2,4.3321793E1,1.6120636E1,1.5175758E1,1.7515314E1,1.3057977E1,6.764824E0,5.528553E0,1.0452873E1,6.1758556E0,8.67639E0,1.9189157E0,3.9861174E0,3.4728966E0,1.3198853E-3,0E0,0E0,0E0,0E0,0E0,0E0,0E0,0E0,0E0,0E0,0E0,0E0,0E0,0E0,0E0,0E0],"parents":[2147483647,0,0,1,1,2,2,3,3,4,4,5,5,6,6,7,7,8,8,9,9,10,10,11,11,12,12,13,13,14,14],"right_children":[2,4,6,8,10,12,14,16,18,20,22,24,26,28,30,-1,-1,-1,-1,-1,-1,-1,-1,-1,-1,-1,-1,-1,-1,-1,-1],"split_conditions":[2.91E0,2.29E0,7.1E-1,5E-1,5.6E-1,6.888889E-1,3.47E0,7.75E-1,5.6666666E-1,2.33E0,8.6E-1,4.6E-1,5.2E-1,7.8333336E-1,8.5E-1,1.2355381E-1,3.7136216E-2,1.0977407E-1,3.9581653E-2,-3.8901556E-2,7.319738E-2,5.956217E-4,-5.157745E-2,1.5155031E-1,4.676952E-2,5.212013E-2,-4.237565E-2,-3.1695973E-2,-6.525989E-2,-7.776674E-2,-9.6223414E-2],"split_indices":[0,0,1,1,1,2,0,2,2,0,1,1,1,2,2,0,0,0,0,0,0,0,0,0,0,0,0,0,0,0,0],"split_type":[0,0,0,0,0,0,0,0,0,0,0,0,0,0,0,0,0,0,0,0,0,0,0,0,0,0,0,0,0,0,0],"sum_hessian":[8.866666E2,5.680378E2,3.1862888E2,2.8260687E2,2.854309E2,7.700905E1,2.4161984E2,5.1449574E1,2.3115729E2,4.4459934E1,2.4097096E2,1.4623329E1,6.2385723E1,1.4725308E2,9.436675E1,4.1142242E1,1.0307333E1,2.3168383E1,2.079889E2,4.960765E0,3.949917E1,2.0420544E2,3.676552E1,1.5043063E0,1.3119022E1,3.990595E0,5.839513E1,4.953324E1,9.771984E1,3.8664783E1,5.5701973E1],"tree_param":{"num_deleted":"0","num_feature":"5","num_nodes":"31","size_leaf_vector":"1"}},{"base_weights":[-4.019808E-3,2.737657E-1,-5.215394E-1,5.477724E-1,5.3928956E-2,-1.4011301E-1,-6.45841E-1,9.9479586E-1,4.3729293E-1,1.275614E-1,-4.802032E-1,5.960383E-1,-3.279457E-1,-5.0698936E-1,-8.6003524E-1,1.1479169E-1,3.3675153E-2,9.622377E-2,3.4815967E-2,3.0521259E-2,-6.5250807E-3,6.219807E-2,-5.3286113E-2,1.3789749E-1,4.1460536E-2,4.696696E-2,-3.923769E-2,-4.0328313E-2,-7.693809E-2,-7.399595E-2,-9.2909314E-2],"categories":[],"categories_nodes":[],"categories_segments":[],"categories_sizes":[],"default_left":[0,0,0,0,0,0,0,0,0,0,0,0,0,0,0,0,0,0,0,0,0,0,0,0,0,0,0,0,0,0,0],"id":6,"left_children":[1,3,5,7,9,11,13,15,17,19,21,23,25,27,29,-1,-1,-1,-1,-1,-1,-1,-1,-1,-1,-1,-1,-1,-1,-1,-1],"loss_changes":[1.2683764E2,3.4554317E1,1.452021E1,1.2181786E1,1.2633457E1,1.0845309E1,6.468254E0,4.635483E0,9.33308E0,9.669954E0,2.5913448E0,1.7027874E0,3.3709693E0,3.5885925E0,5.769348E-2,0E0,0E0,0E0,0E0,0E0,0E0,0E0,0E0,0E0,0E0,0E0,0E0,0E0,0E0,0E0,0E0],"parents":[2147483647,0,0,1,1,2,2,3,3,4,4,5,5,6,6,7,7,8,8,9,9,10,10,11,11,12,12,13,13,14,14],"right_children":[2,4,6,8,10,12,14,16,18,20,22,24,26,28,30,-1,-1,-1,-1,-1,-1,-1,-1,-1,-1,-1,-1,-1,-1,-1,-1],"split_conditions":[2.91E0,2.22E0,7.1E-1,5E-1,8.6E-1,6.888889E-1,3.47E0,7.75E-1,5.75E-1,7.5E-1,5.75E-1,4.6E-1,5.2E-1,9E-1,8.5E-1,1.1479169E-1,3.3675153E-2,9.622377E-2,3.4815967E-2,3.0521259E-2,-6.5250807E-3,6.219807E-2,-5.3286113E-2,1.3789749E-1,4.1460536E-2,4.696696E-2,-3.923769E-2,-4.0328313E-2,-7.693809E-2,-7.399595E-2,-9.2909314E-2],"split_indices":[0,0,1,1,1,2,0,2,2,2,2,1,1,1,2,0,0,0,0,0,0,0,0,0,0,0,0,0,0,0,0],"split_type":[0,0,0,0,0,0,0,0,0,0,0,0,0,0,0,0,0,0,0,0,0,0,0,0,0,0,0,0,0,0,0],"sum_hessian":[8.802976E2,5.7313226E2,3.0716537E2,2.544685E2,3.1866376E2,7.602023E1,2.3114513E2,4.8841415E1,2.0562709E2,2.8072568E2,3.7938076E1,1.5012035E1,6.1008198E1,1.4227936E2,8.8865776E1,3.9017864E1,9.82355E0,2.84249E1,1.7720218E2,1.4580371E2,1.3492197E2,1.236894E0,3.6701183E1,1.582522E0,1.3429513E1,4.089794E0,5.6918404E1,1.0379352E2,3.8485832E1,3.6724823E1,5.2140953E1],"tree_param":{"num_deleted":"0","num_feature":"5","num_nodes":"31","size_leaf_vector":"1"}},{"base_weights":[-4.0454287E-3,2.4492657E-1,-4.8782957E-1,4.923597E-1,3.506386E-2,-1.2571292E-1,-6.0949016E-1,8.231266E-1,3.6587563E-1,1.9308765E-1,-1.63236E-1,5.359092E-1,-3.0168882E-1,-4.7309384E-1,-8.256002E-1,1.1369514E-1,6.691419E-2,1.2884074E-1,3.2520365E-2,3.778182E-2,3.5730253E-3,-6.8976018E-3,-4.931121E-2,1.2634914E-1,3.68679E-2,1.44476015E-2,-4.08211E-2,-3.783857E-2,-7.48764E-2,-7.0343934E-2,-8.9711145E-2],"categories":[],"categories_nodes":[],"categories_segments":[],"categories_sizes":[],"default_left":[0,0,0,0,0,0,0,0,0,0,0,0,0,0,0,0,0,0,0,0,0,0,0,0,0,0,0,0,0,0,0],"id":7,"left_children":[1,3,5,7,9,11,13,15,17,19,21,23,25,27,29,-1,-1,-1,-1,-1,-1,-1,-1,-1,-1,-1,-1,-1,-1,-1,-1],"loss_changes":[1.0546754E2,3.0002693E1,1.303035E1,1.0795372E1,9.867434E0,9.019429E0,6.1659775E0,2.7460327E0,6.8475723E0,5.077593E0,4.311221E0,1.5228004E0,2.9454632E0,3.3381138E0,1.0908127E-1,0E0,0E0,0E0,0E0,0E0,0E0,0E0,0E0,0E0,0E0,0E0,0E0,0E0,0E0,0E0,0E0],"parents":[2147483647,0,0,1,1,2,2,3,3,4,4,5,5,6,6,7,7,8,8,9,9,10,10,11,11,12,12,13,13,14,14],"right_children":[2,4,6,8,10,12,14,16,18,20,22,24,26,28,30,-1,-1,-1,-1,-1,-1,-1,-1,-1,-1,-1,-1,-1,-1,-1,-1],"split_conditions":[2.91E0,6.4E-1,7.1E-1,1.84E0,7.6666665E-1,6.888889E-1,3.47E0,5E-1,5.1111114E-1,2.27E0,8.5E-1,4.6E-1,2E1,9.1E-1,8.5E-1,1.1369514E-1,6.691419E-2,1.2884074E-1,3.2520365E-2,3.778182E-2,3.5730253E-3,-6.8976018E-3,-4.931121E-2,1.2634914E-1,3.68679E-2,1.44476015E-2,-4.08211E-2,-3.783857E-2,-7.48764E-2,-7.0343934E-2,-8.9711145E-2],"split_indices":[0,1,1,0,2,2,0,1,2,0,1,1,4,1,2,0,0,0,0,0,0,0,0,0,0,0,0,0,0,0,0],"split_type":[0,0,0,0,0,0,0,0,0,0,0,0,0,0,0,0,0,0,0,0,0,0,0,0,0,0,0,0,0,0,0],"sum_hessian":[8.7363007E2,5.7711865E2,2.965114E2,2.6423416E2,3.1288446E2,7.507822E1,2.214332E2,7.1568504E1,1.9266566E2,1.7413988E2,1.3874458E2,1.53439045E1,5.973431E1,1.3770856E2,8.3724655E1,2.1456364E1,5.011214E1,6.8400455E0,1.858256E2,7.9458336E1,9.468154E1,1.0885038E2,2.9894207E1,1.6424704E0,1.3701434E1,1.1444226E1,4.8290085E1,1.0426149E2,3.3447063E1,3.4915714E1,4.8808937E1],"tree_param":{"num_deleted":"0","num_feature":"5","num_nodes":"31","size_leaf_vector":"1"}},{"base_weights":[-3.99401E-3,2.195532E-1,-4.5570076E-1,3.9884007E-1,-1.6831607E-2,-1.1297979E-1,-5.744243E-1,5.619113E-1,1.7303881E-1,9.220441E-1,-4.2951617E-2,5.5719167E-1,-2.6059014E-1,-4.2631212E-1,-7.7071464E-1,6.1293542E-2,6.5932735E-3,3.561826E-2,-6.814384E-3,1.7721934E-2,1.6864507E-1,2.23492E-2,-1.3416079E-2,1.3377351E-2,8.3396226E-2,5.90714E-2,-3.2519754E-2,-6.160828E-2,-2.561914E-2,-6.0820956E-2,-8.784454E-2],"categories":[],"categories_nodes":[],"categories_segments":[],"categories_sizes":[],"default_left":[0,0,0,0,0,0,0,0,0,0,0,0,0,0,0,0,0,0,0,0,0,0,0,0,0,0,0,0,0,0,0],"id":8,"left_children":[1,3,5,7,9,11,13,15,17,19,21,23,25,27,29,-1,-1,-1,-1,-1,-1,-1,-1,-1,-1,-1,-1,-1,-1,-1,-1],"loss_changes":[8.775126E1,2.4644064E1,1.1640957E1,1.2077286E1,6.2121468E0,7.5906086E0,5.8763733E0,4.8068733E0,6.2124004E0,3.6053753E0,6.00447E0,1.5178237E0,3.6219287E0,3.841467E0,1.0509186E0,0E0,0E0,0E0,0E0,0E0,0E0,0E0,0E0,0E0,0E0,0E0,0E0,0E0,0E0,0E0,0E0],"parents":[2147483647,0,0,1,1,2,2,3,3,4,4,5,5,6,6,7,7,8,8,9,9,10,10,11,11,12,12,13,13,14,14],"right_children":[2,4,6,8,10,12,14,16,18,20,22,24,26,28,30,-1,-1,-1,-1,-1,-1,-1,-1,-1,-1,-1,-1,-1,-1,-1,-1],"split_conditions":[2.91E0,6.8E-1,7.1E-1,2.25E0,1.42E0,6.7777777E-1,3.41E0,8.25E-1,7.5E-1,7.6E-1,2E0,2.1E1,5.1E-1,3.13E0,8.5E-1,6.1293542E-2,6.5932735E-3,3.561826E-2,-6.814384E-3,1.7721934E-2,1.6864507E-1,2.23492E-2,-1.3416079E-2,1.3377351E-2,8.3396226E-2,5.90714E-2,-3.2519754E-2,-6.160828E-2,-2.561914E-2,-6.0820956E-2,-8.784454E-2],"split_indices":[0,1,1,0,0,2,0,2,2,1,3,4,1,0,2,0,0,0,0,0,0,0,0,0,0,0,0,0,0,0,0],"split_type":[0,0,0,0,0,0,0,0,0,0,0,0,0,0,0,0,0,0,0,0,0,0,0,0,0,0,0,0,0,0,0],"sum_hessian":[8.6702466E2,5.803343E2,2.8669034E2,3.2963458E2,2.5069972E2,7.426375E1,2.1242659E2,1.905401E2,1.3909448E2,5.857389E0,2.4484235E2,1.2903828E1,6.135992E1,1.2287914E2,8.9547455E1,1.725528E2,1.7987297E1,7.878881E1,6.0305676E1,3.5906045E0,2.2667844E0,6.2070217E1,1.8277213E2,5.6869574E0,7.2168703E0,3.7538545E0,5.7606068E1,5.684584E1,6.603331E1,3.8347828E1,5.1199627E1],"tree_param":{"num_deleted":"0","num_feature":"5","num_nodes":"31","size_leaf_vector":"1"}},{"base_weights":[-3.9042777E-3,1.9703926E-1,-4.2503348E-1,5.2731365E-1,8.792462E-2,-1.49958E-1,-5.688333E-1,1.0173522E0,4.3736044E-1,2.843928E-1,-7.556692E-2,-1.8639104E-2,-7.572762E-1,-2.2435352E-1,-6.233329E-1,1.354933E-1,6.1488193E-2,5.209546E-2,-7.939499E-3,1.022255E-1,2.2080718E-2,7.124062E-3,-2.2839297E-2,2.5228033E-2,-2.7678952E-2,-4.281173E-2,-8.9089096E-2,-4.491069E-2,1.7797908E-2,-5.028388E-2,-7.561394E-2],"categories":[],"categories_nodes":[],"categories_segments":[],"categories_sizes":[],"default_left":[0,0,0,0,0,0,0,0,0,0,0,0,0,0,0,0,0,0,0,0,0,0,0,0,0,0,0,0,0,0,0],"id":9,"left_children":[1,3,5,7,9,11,13,15,17,19,21,23,25,27,29,-1,-1,-1,-1,-1,-1,-1,-1,-1,-1,-1,-1,-1,-1,-1,-1],"loss_changes":[7.298687E1,2.0996136E1,1.0935005E1,5.9379845E0,1.4157882E1,7.7220135E0,3.288288E0,2.1156864E0,5.4021053E0,9.162481E0,5.423331E0,5.719529E0,3.7595177E-1,2.4766626E0,2.1336746E0,0E0,0E0,0E0,0E0,0E0,0E0,0E0,0E0,0E0,0E0,0E0,0E0,0E0,0E0,0E0,0E0],"parents":[2147483647,0,0,1,1,2,2,3,3,4,4,5,5,6,6,7,7,8,8,9,9,10,10,11,11,12,12,13,13,14,14],"right_children":[2,4,6,8,10,12,14,16,18,20,22,24,26,28,30,-1,-1,-1,-1,-1,-1,-1,-1,-1,-1,-1,-1,-1,-1,-1,-1],"split_conditions":[2.91E0,5.6E-1,7.8333336E-1,2E1,2.29E0,8.8E-1,6.8E-1,2.07E0,8.0833334E-1,5.5E-1,7.6666665E-1,3E0,9.2E-1,2.2E1,3.41E0,1.354933E-1,6.1488193E-2,5.209546E-2,-7.939499E-3,1.022255E-1,2.2080718E-2,7.124062E-3,-2.2839297E-2,2.5228033E-2,-2.7678952E-2,-4.281173E-2,-8.9089096E-2,-4.491069E-2,1.7797908E-2,-5.028388E-2,-7.561394E-2],"split_indices":[0,1,2,4,0,1,1,0,2,2,2,3,1,4,0,0,0,0,0,0,0,0,0,0,0,0,0,0,0,0,0],"split_type":[0,0,0,0,0,0,0,0,0,0,0,0,0,0,0,0,0,0,0,0,0,0,0,0,0,0,0,0,0,0,0],"sum_hessian":[8.6050287E2,5.8290125E2,2.776016E2,1.4380162E2,4.390996E2,9.6001884E1,1.8159973E2,2.0703777E1,1.2309785E2,1.9910052E2,2.399991E2,7.97816E1,1.6220284E1,2.5505E1,1.5609473E2,9.972547E0,1.0731232E1,1.0595041E2,1.714744E1,1.460016E1,1.8450037E2,1.2268217E2,1.17316925E2,3.8939137E1,4.084246E1,5.897054E0,1.032323E1,1.6289183E1,9.2158165E0,8.435048E1,7.174425E1],"tree_param":{"num_deleted":"0","num_feature":"5","num_nodes":"31","size_leaf_vector":"1"}},{"base_weights":[-3.906282E-3,1.7724688E-1,-3.9622322E-1,4.7204977E-1,7.916534E-2,-1.3816278E-1,-5.35372E-1,9.1170746E-1,3.9090756E-1,6.03798E-1,2.8018009E-2,-1.7029747E-2,-7.254308E-1,-2.062319E-1,-5.890855E-1,1.2189519E-1,5.4948088E-2,4.8961293E-2,3.162507E-3,2.8891966E-2,1.3068932E-1,1.8531796E-2,-9.695953E-3,2.2436094E-2,-2.5404144E-2,-4.0223833E-2,-8.60904E-2,5.820311E-2,-3.1039087E-2,-4.8294086E-2,-7.426341E-2],"categories":[],"categories_nodes":[],"categories_segments":[],"categories_sizes":[],"default_left":[0,0,0,0,0,0,0,0,0,0,0,0,0,0,0,0,0,0,0,0,0,0,0,0,0,0,0,0,0,0,0],"id":10,"left_children":[1,3,5,7,9,11,13,15,17,19,21,23,25,27,29,-1,-1,-1,-1,-1,-1,-1,-1,-1,-1,-1,-1,-1,-1,-1,-1],"loss_changes":[6.08401E1,1.689677E1,9.636452E0,4.8523064E0,1.1807378E1,6.822539E0,2.9783783E0,1.7783508E0,4.417677E0,8.277669E0,7.931839E0,4.672598E0,3.7199306E-1,2.3267362E0,2.0893707E0,0E0,0E0,0E0,0E0,0E0,0E0,0E0,0E0,0E0,0E0,0E0,0E0,0E0,0E0,0E0,0E0],"parents":[2147483647,0,0,1,1,2,2,3,3,4,4,5,5,6,6,7,7,8,8,9,9,10,10,11,11,12,12,13,13,14,14],"right_children":[2,4,6,8,10,12,14,16,18,20,22,24,26,28,30,-1,-1,-1,-1,-1,-1,-1,-1,-1,-1,-1,-1,-1,-1,-1,-1],"split_conditions":[2.91E0,5.6E-1,7.8333336E-1,2E1,5.75E-1,8.8E-1,6.8E-1,2.07E0,7.75E-1,4E0,2.29E0,3E0,9.2E-1,2.96E0,3.48E0,1.2189519E-1,5.4948088E-2,4.8961293E-2,3.162507E-3,2.8891966E-2,1.3068932E-1,1.8531796E-2,-9.695953E-3,2.2436094E-2,-2.5404144E-2,-4.0223833E-2,-8.60904E-2,5.820311E-2,-3.1039087E-2,-4.8294086E-2,-7.426341E-2],"split_indices":[0,1,2,4,2,1,1,0,2,3,0,3,1,0,0,0,0,0,0,0,0,0,0,0,0,0,0,0,0,0,0],"split_type":[0,0,0,0,0,0,0,0,0,0,0,0,0,0,0,0,0,0,0,0,0,0,0,0,0,0,0,0,0,0,0],"sum_hessian":[8.5407715E2,5.846582E2,2.6941895E2,1.45005E2,4.396532E2,9.5079956E1,1.7433899E2,2.0997437E1,1.24007576E2,3.8095173E1,4.01558E2,7.9674805E1,1.5405151E1,2.5138334E1,1.4920065E2,1.008125E1,1.0916186E1,9.699693E1,2.7010637E1,2.7286123E1,1.0809052E1,1.7757489E2,2.2398312E2,3.94992E1,4.0175602E1,5.7224603E0,9.682691E0,2.3985412E0,2.2739792E1,9.0668655E1,5.8532E1],"tree_param":{"num_deleted":"0","num_feature":"5","num_nodes":"31","size_leaf_vector":"1"}},{"base_weights":[-3.7065854E-3,1.5971452E-1,-3.6871353E-1,2.9629362E-1,-2.3550728E-2,-2.2121991E-1,-6.043741E-1,4.166972E-1,1.2799819E-1,9.787028E-1,-4.1978102E-2,5.015233E-3,-3.8422439E-1,5.466658E-2,-6.2308705E-1,6.349277E-2,3.3346027E-2,9.1262944E-2,8.67255E-3,1.289274E-1,2.2897612E-2,6.2185205E-3,-2.2345634E-2,1.1143171E-2,-7.796461E-2,-6.493775E-2,-2.8533433E-2,-4.439047E-2,-7.7737E-2],"categories":[],"categories_nodes":[],"categories_segments":[],"categories_sizes":[],"default_left":[0,0,0,0,0,0,0,0,0,0,0,0,0,0,0,0,0,0,0,0,0,0,0,0,0,0,0,0,0],"id":11,"left_children":[1,3,5,7,9,11,13,15,17,19,21,23,25,-1,27,-1,-1,-1,-1,-1,-1,-1,-1,-1,-1,-1,-1,-1,-1],"loss_changes":[5.0693222E1,1.4700707E1,9.001503E0,6.764015E0,4.6879077E0,6.021258E0,2.507351E0,3.3427887E0,4.511471E0,7.7203894E-1,4.702293E0,5.877017E0,2.3026485E0,0E0,2.404251E0,0E0,0E0,0E0,0E0,0E0,0E0,0E0,0E0,0E0,0E0,0E0,0E0,0E0,0E0],"parents":[2147483647,0,0,1,1,2,2,3,3,4,4,5,5,6,6,7,7,8,8,9,9,10,10,11,11,12,12,14,14],"right_children":[2,4,6,8,10,12,14,16,18,20,22,24,26,-1,28,-1,-1,-1,-1,-1,-1,-1,-1,-1,-1,-1,-1,-1,-1],"split_conditions":[2.91E0,6.8E-1,3.39E0,2.25E0,1.34E0,7.8333336E-1,4.7E-1,5E-1,5.222222E-1,3E0,2.2E1,8.9E-1,2E0,5.466658E-2,8.5E-1,6.349277E-2,3.3346027E-2,9.1262944E-2,8.67255E-3,1.289274E-1,2.2897612E-2,6.2185205E-3,-2.2345634E-2,1.1143171E-2,-7.796461E-2,-6.493775E-2,-2.8533433E-2,-4.439047E-2,-7.7737E-2],"split_indices":[0,1,0,0,0,2,1,1,2,3,4,1,3,0,2,0,0,0,0,0,0,0,0,0,0,0,0,0,0],"split_type":[0,0,0,0,0,0,0,0,0,0,0,0,0,0,0,0,0,0,0,0,0,0,0,0,0,0,0,0,0],"sum_hessian":[8.478596E2,5.8604E2,2.618197E2,3.3543732E2,2.5060263E2,1.6222571E2,9.959399E1,1.9468083E2,1.407565E2,3.5835614E0,2.4701907E2,6.834224E1,9.388347E1,1.1419021E0,9.845208E1,5.192252E1,1.427583E2,5.978955E0,1.3477754E2,2.025039E0,1.5585225E0,1.5735764E2,8.966143E1,6.0936028E1,7.406212E0,2.3990719E1,6.989275E1,4.7344273E1,5.110781E1],"tree_param":{"num_deleted":"0","num_feature":"5","num_nodes":"29","size_leaf_vector":"1"}},{"base_weights":[-3.5535095E-3,1.4394863E-1,-3.426835E-1,2.6590672E-1,-2.0762641E-2,-2.2632833E-1,-6.247787E-1,3.4448203E-1,3.3890396E-2,3.44996E-2,-3.266935E-1,1.3124824E-1,-2.528845E-1,-4.5093226E-1,-7.964072E-1,7.789615E-2,2.9033104E-2,2.6459461E-2,-1.1020625E-2,8.122682E-2,8.4225397E-4,-4.074565E-2,3.5193898E-2,-1.7997768E-2,-6.2400337E-2,1.4427609E-2,-5.7134192E-2,1.6746713E-2,-8.3823435E-2],"categories":[],"categories_nodes":[],"categories_segments":[],"categories_sizes":[],"default_left":[0,0,0,0,0,0,0,0,0,0,0,0,0,0,0,0,0,0,0,0,0,0,0,0,0,0,0,0,0],"id":12,"left_children":[1,3,5,7,9,11,13,15,17,19,21,-1,23,25,27,-1,-1,-1,-1,-1,-1,-1,-1,-1,-1,-1,-1,-1,-1],"loss_changes":[4.2220085E1,1.1821414E1,8.255674E0,6.151045E0,4.2576666E0,7.797476E0,1.8529453E0,5.712448E0,2.9090083E0,4.3263125E0,2.2548604E0,0E0,4.769552E0,2.8873005E0,1.591835E0,0E0,0E0,0E0,0E0,0E0,0E0,0E0,0E0,0E0,0E0,0E0,0E0,0E0,0E0],"parents":[2147483647,0,0,1,1,2,2,3,3,4,4,5,5,6,6,7,7,8,8,9,9,10,10,12,12,13,13,14,14],"right_children":[2,4,6,8,10,12,14,16,18,20,22,-1,24,26,28,-1,-1,-1,-1,-1,-1,-1,-1,-1,-1,-1,-1,-1,-1],"split_conditions":[2.91E0,6.8E-1,3.5E0,7.75E-1,8.7E-1,4.7E-1,3E0,4.3E-1,2.17E0,1.42E0,2.86E0,1.3124824E-1,9.1E-1,7E-1,6.4166665E-1,7.789615E-2,2.9033104E-2,2.6459461E-2,-1.1020625E-2,8.122682E-2,8.4225397E-4,-4.074565E-2,3.5193898E-2,-1.7997768E-2,-6.2400337E-2,1.4427609E-2,-5.7134192E-2,1.6746713E-2,-8.3823435E-2],"split_indices":[0,1,0,2,1,1,3,1,0,0,0,0,1,1,2,0,0,0,0,0,0,0,0,0,0,0,0,0,0],"split_type":[0,0,0,0,0,0,0,0,0,0,0,0,0,0,0,0,0,0,0,0,0,0,0,0,0,0,0,0,0],"sum_hessian":[8.420375E2,5.872102E2,2.548273E2,3.3703964E2,2.5017055E2,1.8168883E2,7.313848E1,2.5141125E2,8.562838E1,2.1264615E2,3.75244E1,2.2608347E0,1.79428E2,3.8136517E1,3.500196E1,2.6378555E1,2.250327E2,3.259935E1,5.302903E1,5.920285E0,2.0672586E2,3.389071E1,3.6336884E0,1.5120793E2,2.8220058E1,6.3834867E0,3.175303E1,1.3308032E0,3.3671158E1],"tree_param":{"num_deleted":"0","num_feature":"5","num_nodes":"29","size_leaf_vector":"1"}},{"base_weights":[-3.3350305E-3,1.2964647E-1,-3.1741866E-1,2.8652596E-1,1.9368611E-2,-3.6824327E-2,-4.2654347E-1,5.75613E-1,2.237519E-1,6.7100555E-2,-3.8472894E-1,1.6042532E-1,-3.9270085E-1,-3.0903533E-1,-6.442863E-1,4.022737E-2,9.631137E-2,4.3967053E-2,1.1692588E-2,1.7534755E-2,-6.3462257E-3,-4.70095E-2,2.7234737E-2,1.0972841E-1,9.448592E-3,4.7217485E-2,-4.8636336E-2,-7.981222E-2,-2.4470707E-2,-8.860396E-2,-5.6538653E-2],"categories":[],"categories_nodes":[],"categories_segments":[],"categories_sizes":[],"default_left":[0,0,0,0,0,0,0,0,0,0,0,0,0,0,0,0,0,0,0,0,0,0,0,0,0,0,0,0,0,0,0],"id":13,"left_children":[1,3,5,7,9,11,13,15,17,19,21,23,25,27,29,-1,-1,-1,-1,-1,-1,-1,-1,-1,-1,-1,-1,-1,-1,-1,-1],"loss_changes":[3.5014526E1,1.018397E1,7.619644E0,4.2818317E0,6.7175446E0,5.04116E0,4.3922043E0,2.4823751E0,4.5922356E0,4.408369E0,2.1921487E0,2.7588727E0,2.3017793E0,3.5319567E0,6.8115807E-1,0E0,0E0,0E0,0E0,0E0,0E0,0E0,0E0,0E0,0E0,0E0,0E0,0E0,0E0,0E0,0E0],"parents":[2147483647,0,0,1,1,2,2,3,3,4,4,5,5,6,6,7,7,8,8,9,9,10,10,11,11,12,12,13,13,14,14],"right_children":[2,4,6,8,10,12,14,16,18,20,22,24,26,28,30,-1,-1,-1,-1,-1,-1,-1,-1,-1,-1,-1,-1,-1,-1,-1,-1],"split_conditions":[2.91E0,2.17E0,7.1E-1,6E-1,8.6E-1,8.333333E-1,3.47E0,4E0,5.6E-1,7.5E-1,2.86E0,2.93E0,5.4E-1,7.4E-1,3.56E0,4.022737E-2,9.631137E-2,4.3967053E-2,1.1692588E-2,1.7534755E-2,-6.3462257E-3,-4.70095E-2,2.7234737E-2,1.0972841E-1,9.448592E-3,4.7217485E-2,-4.8636336E-2,-7.981222E-2,-2.4470707E-2,-8.860396E-2,-5.6538653E-2],"split_indices":[0,0,1,2,1,2,0,3,1,2,0,0,1,1,0,0,0,0,0,0,0,0,0,0,0,0,0,0,0,0,0],"split_type":[0,0,0,0,0,0,0,0,0,0,0,0,0,0,0,0,0,0,0,0,0,0,0,0,0,0,0,0,0,0,0],"sum_hessian":[8.363383E2,5.8797833E2,2.4835997E2,2.4204741E2,3.4593094E2,6.991748E1,1.7844249E2,4.1725163E1,2.0032224E2,3.1013214E2,3.5798813E1,4.533765E1,2.457983E1,1.1746828E2,6.097422E1,3.0237328E1,1.1487836E1,6.527384E1,1.350484E2,1.6936884E2,1.407633E2,3.193451E1,3.8643026E0,1.9527292E0,4.3384922E1,2.006906E0,2.2572924E1,1.2328422E1,1.05139854E2,1.2486119E1,4.8488102E1],"tree_param":{"num_deleted":"0","num_feature":"5","num_nodes":"31","size_leaf_vector":"1"}},{"base_weights":[-3.2206203E-3,1.00540906E-1,-3.4083095E-1,2.206457E-1,-5.0171066E-2,-1.9680746E-1,-5.840207E-1,4.9116072E-1,1.7251691E-1,4.1700218E-2,-2.207615E-1,-6.056142E-2,-4.18054E-1,-4.3231428E-1,-7.799931E-1,3.1344645E-2,8.832107E-2,3.2694034E-2,6.404493E-3,6.6367923E-3,-9.702128E-2,1.1753179E-2,-3.4789275E-2,-3.9212115E-2,7.832926E-3,-2.0762486E-2,-6.225088E-2,-2.411534E-2,-6.7580424E-2,-8.3889075E-2,-3.8218964E-2],"categories":[],"categories_nodes":[],"categories_segments":[],"categories_sizes":[],"default_left":[0,0,0,0,0,0,0,0,0,0,0,0,0,0,0,0,0,0,0,0,0,0,0,0,0,0,0,0,0,0,0],"id":14,"left_children":[1,3,5,7,9,11,13,15,17,19,21,23,25,27,29,-1,-1,-1,-1,-1,-1,-1,-1,-1,-1,-1,-1,-1,-1,-1,-1],"loss_changes":[2.9176685E1,1.1543462E1,6.7429333E0,4.533827E0,4.450208E0,3.7270074E0,1.8128605E0,3.4185724E0,5.0494843E0,4.6827326E0,4.313576E0,3.632246E0,1.9045429E0,1.8388071E0,3.8959122E-1,0E0,0E0,0E0,0E0,0E0,0E0,0E0,0E0,0E0,0E0,0E0,0E0,0E0,0E0,0E0,0E0],"parents":[2147483647,0,0,1,1,2,2,3,3,4,4,5,5,6,6,7,7,8,8,9,9,10,10,11,11,12,12,13,13,14,14],"right_children":[2,4,6,8,10,12,14,16,18,20,22,24,26,28,30,-1,-1,-1,-1,-1,-1,-1,-1,-1,-1,-1,-1,-1,-1,-1,-1],"split_conditions":[3.04E0,6.8E-1,8.5E-1,5.888889E-1,2.68E0,3.39E0,8.888889E-1,4E0,5.6E-1,9.777778E-1,2E0,3.13E0,3E0,9.4E-1,4E0,3.1344645E-2,8.832107E-2,3.2694034E-2,6.404493E-3,6.6367923E-3,-9.702128E-2,1.1753179E-2,-3.4789275E-2,-3.9212115E-2,7.832926E-3,-2.0762486E-2,-6.225088E-2,-2.411534E-2,-6.7580424E-2,-8.3889075E-2,-3.8218964E-2],"split_indices":[0,1,1,2,0,0,2,3,1,2,3,0,3,1,0,0,0,0,0,0,0,0,0,0,0,0,0,0,0,0,0],"split_type":[0,0,0,0,0,0,0,0,0,0,0,0,0,0,0,0,0,0,0,0,0,0,0,0,0,0,0,0,0,0,0],"sum_hessian":[8.3090454E2,6.361054E2,1.9479913E2,3.5374017E2,2.8236523E2,1.2348015E2,7.1318985E1,5.2039455E1,3.017007E2,1.8401807E2,9.8347176E1,7.720821E1,4.627193E1,4.20067E1,2.9312284E1,3.704613E1,1.4993323E1,1.23652245E2,1.7804848E2,1.8055113E2,3.4669356E0,2.6884268E1,7.1462906E1,2.2255846E1,5.495237E1,2.3796043E1,2.247589E1,2.4647034E1,1.7359665E1,2.4566269E1,4.7460155E0],"tree_param":{"num_deleted":"0","num_feature":"5","num_nodes":"31","size_leaf_vector":"1"}},{"base_weights":[-3.5103078E-3,9.0456694E-2,-3.169294E-1,1.8661912E-1,-6.446975E-2,-1.8086751E-1,-5.5371976E-1,6.6417587E-1,1.5295167E-1,3.5483733E-2,-2.5658342E-1,-5.5259984E-2,-3.9027962E-1,-4.0478438E-1,-7.514664E-1,3.834459E-2,9.357586E-2,4.5167334E-2,1.14598265E-2,2.1801207E-2,-8.072476E-3,-7.2642164E-3,-4.012009E-2,-3.6387596E-2,7.026195E-3,-1.9052291E-2,-5.905996E-2,-9.44763E-2,-3.0816037E-2,-5.1072437E-2,-8.731959E-2],"categories":[],"categories_nodes":[],"categories_segments":[],"categories_sizes":[],"default_left":[0,0,0,0,0,0,0,0,0,0,0,0,0,0,0,0,0,0,0,0,0,0,0,0,0,0,0,0,0,0,0],"id":15,"left_children":[1,3,5,7,9,11,13,15,17,19,21,23,25,27,29,-1,-1,-1,-1,-1,-1,-1,-1,-1,-1,-1,-1,-1,-1,-1,-1],"loss_changes":[2.439193E1,9.505291E0,6.0545864E0,6.2240057E0,4.709552E0,3.2086926E0,1.7346554E0,1.5937796E0,4.1737843E0,3.4515164E0,2.2025142E0,3.0443423E0,1.7233071E0,1.882184E0,3.9136696E-1,0E0,0E0,0E0,0E0,0E0,0E0,0E0,0E0,0E0,0E0,0E0,0E0,0E0,0E0,0E0,0E0],"parents":[2147483647,0,0,1,1,2,2,3,3,4,4,5,5,6,6,7,7,8,8,9,9,10,10,11,11,12,12,13,13,14,14],"right_children":[2,4,6,8,10,12,14,16,18,20,22,24,26,28,30,-1,-1,-1,-1,-1,-1,-1,-1,-1,-1,-1,-1,-1,-1,-1,-1],"split_conditions":[3.04E0,7.6666665E-1,8.5E-1,4.3E-1,7.6E-1,3.39E0,8.888889E-1,6.5555555E-1,1.57E0,2.1E1,2.63E0,3.13E0,3E0,3.13E0,2.1E1,3.834459E-2,9.357586E-2,4.5167334E-2,1.14598265E-2,2.1801207E-2,-8.072476E-3,-7.2642164E-3,-4.012009E-2,-3.6387596E-2,7.026195E-3,-1.9052291E-2,-5.905996E-2,-9.44763E-2,-3.0816037E-2,-5.1072437E-2,-8.731959E-2],"split_indices":[0,2,1,1,1,0,2,2,0,4,0,0,3,0,4,0,0,0,0,0,0,0,0,0,0,0,0,0,0,0,0],"split_type":[0,0,0,0,0,0,0,0,0,0,0,0,0,0,0,0,0,0,0,0,0,0,0,0,0,0,0,0,0,0,0],"sum_hessian":[8.2624585E2,6.3621265E2,1.900332E2,3.9242865E2,2.4378398E2,1.21806114E2,6.822708E1,2.4610662E1,3.67818E2,1.6089062E2,8.289336E1,7.692788E1,4.487824E1,4.065457E1,2.7572514E1,1.3287509E1,1.13231535E1,4.0625233E1,3.2719275E2,6.2245598E1,9.864503E1,3.7147358E1,4.5746E1,2.1693066E1,5.523481E1,2.344763E1,2.1430609E1,4.8382916E0,3.581628E1,1.1004568E1,1.6567945E1],"tree_param":{"num_deleted":"0","num_feature":"5","num_nodes":"31","size_leaf_vector":"1"}},{"base_weights":[-3.646169E-3,8.159046E-2,-2.9453167E-1,1.8246917E-1,-4.6229E-2,-1.6608171E-1,-5.2450484E-1,6.4719844E-1,1.5898171E-1,7.6043844E-1,-5.996854E-2,5.357708E-3,-3.0126083E-1,-3.7881643E-1,-7.23551E-1,7.817819E-2,-1.948561E-2,5.3860504E-2,1.3214608E-2,9.604472E-3,1.0797625E-1,7.906685E-3,-1.4895417E-2,2.4989393E-2,-2.6878292E-2,-4.322475E-2,6.1482604E-4,-9.225301E-2,-2.8512387E-2,-7.868759E-2,-3.1871963E-2],"categories":[],"categories_nodes":[],"categories_segments":[],"categories_sizes":[],"default_left":[0,0,0,0,0,0,0,0,0,0,0,0,0,0,0,0,0,0,0,0,0,0,0,0,0,0,0,0,0,0,0],"id":16,"left_children":[1,3,5,7,9,11,13,15,17,19,21,23,25,27,29,-1,-1,-1,-1,-1,-1,-1,-1,-1,-1,-1,-1,-1,-1,-1,-1],"loss_changes":[2.0428526E1,8.225208E0,5.4284687E0,3.7868567E0,3.1698058E0,2.8119223E0,1.6528912E0,2.0582886E0,3.3980408E0,9.13352E-1,3.4523673E0,3.7169788E0,2.73353E0,1.7984228E0,4.4096375E-1,0E0,0E0,0E0,0E0,0E0,0E0,0E0,0E0,0E0,0E0,0E0,0E0,0E0,0E0,0E0,0E0],"parents":[2147483647,0,0,1,1,2,2,3,3,4,4,5,5,6,6,7,7,8,8,9,9,10,10,11,11,12,12,13,13,14,14],"right_children":[2,4,6,8,10,12,14,16,18,20,22,24,26,28,30,-1,-1,-1,-1,-1,-1,-1,-1,-1,-1,-1,-1,-1,-1,-1,-1],"split_conditions":[3.04E0,6.8E-1,8.5E-1,5.1666665E-1,1.34E0,7.888889E-1,8.888889E-1,6.4E-1,4.1E-1,1.2E0,2.1E1,3.29E0,7.9E-1,3.13E0,4E0,7.817819E-2,-1.948561E-2,5.3860504E-2,1.3214608E-2,9.604472E-3,1.0797625E-1,7.906685E-3,-1.4895417E-2,2.4989393E-2,-2.6878292E-2,-4.322475E-2,6.1482604E-4,-9.225301E-2,-2.8512387E-2,-7.868759E-2,-3.1871963E-2],"split_indices":[0,1,1,2,0,2,2,1,1,0,4,0,1,0,0,0,0,0,0,0,0,0,0,0,0,0,0,0,0,0,0],"split_type":[0,0,0,0,0,0,0,0,0,0,0,0,0,0,0,0,0,0,0,0,0,0,0,0,0,0,0,0,0,0,0],"sum_hessian":[8.2195776E2,6.362425E2,1.8571524E2,3.5535712E2,2.808854E2,1.20264496E2,6.545074E1,1.5818234E1,3.3953888E2,3.7938936E0,2.770915E2,5.3444485E1,6.6820015E1,3.9466824E1,2.5983912E1,1.3700151E1,2.1180832E0,2.1158272E1,3.183806E2,1.6537772E0,2.1401165E0,1.0817898E2,1.6891252E2,2.8294209E1,2.5150276E1,4.6570347E1,2.0249668E1,4.500915E0,3.4965908E1,2.165315E1,4.330762E0],"tree_param":{"num_deleted":"0","num_feature":"5","num_nodes":"31","size_leaf_vector":"1"}},{"base_weights":[-3.5189549E-3,1.1173133E-1,-1.8930198E-1,1.3692066E-1,-6.152219E-1,-7.367057E-2,-3.8692912E-1,5.8846575E-1,1.0812328E-1,5.294764E-2,-7.7854824E-1,1.0488814E-1,-1.8358243E-1,-3.2498786E-1,-6.766887E-1,3.378827E-2,7.940689E-2,3.8408175E-2,6.879718E-3,-5.021007E-2,-1.0051141E-1,9.803557E-2,9.950587E-4,-8.892101E-2,-1.463517E-2,2.3187274E-2,-3.4648996E-2,-3.8877625E-2,-7.8077845E-2],"categories":[],"categories_nodes":[],"categories_segments":[],"categories_sizes":[],"default_left":[0,0,0,0,0,0,0,0,0,0,0,0,0,0,0,0,0,0,0,0,0,0,0,0,0,0,0,0,0],"id":17,"left_children":[1,3,5,7,9,11,13,15,17,-1,19,21,23,25,27,-1,-1,-1,-1,-1,-1,-1,-1,-1,-1,-1,-1,-1,-1],"loss_changes":[1.7557064E1,9.351149E0,7.1452084E0,6.307229E0,3.6149168E0,3.9302845E0,1.8556194E0,1.233407E0,4.9851284E0,0E0,4.5965195E-1,6.3539696E0,3.1199899E0,1.2441664E0,2.791214E-1,0E0,0E0,0E0,0E0,0E0,0E0,0E0,0E0,0E0,0E0,0E0,0E0,0E0,0E0],"parents":[2147483647,0,0,1,1,2,2,3,3,4,4,5,5,6,6,7,7,8,8,10,10,11,11,12,12,13,13,14,14],"right_children":[2,4,6,8,10,12,14,16,18,-1,20,22,24,26,28,-1,-1,-1,-1,-1,-1,-1,-1,-1,-1,-1,-1,-1,-1],"split_conditions":[7.8333336E-1,9.2E-1,3.04E0,4.3E-1,2.22E0,2.1E1,9.6E-1,6.5555555E-1,1.66E0,5.294764E-2,7.222222E-1,5.1E-1,4.4E-1,5.5E-1,8.5833335E-1,3.378827E-2,7.940689E-2,3.8408175E-2,6.879718E-3,-5.021007E-2,-1.0051141E-1,9.803557E-2,9.950587E-4,-8.892101E-2,-1.463517E-2,2.3187274E-2,-3.4648996E-2,-3.8877625E-2,-7.8077845E-2],"split_indices":[2,1,0,1,0,4,1,2,0,0,2,1,1,1,2,0,0,0,0,0,0,0,0,0,0,0,0,0,0],"split_type":[0,0,0,0,0,0,0,0,0,0,0,0,0,0,0,0,0,0,0,0,0,0,0,0,0,0,0,0,0],"sum_hessian":[8.179933E2,5.0507144E2,3.1292188E2,4.88941E2,1.6130426E1,1.9828079E2,1.1464108E2,2.8147732E1,4.6079327E2,1.7341977E0,1.439623E1,7.556554E1,1.22715256E2,9.619851E1,1.8442574E1,1.3877552E1,1.427018E1,5.638223E1,4.0441104E2,7.9329114E0,6.4633183E0,6.480375E0,6.908516E1,5.0033736E0,1.1771188E2,3.2126932E0,9.298582E1,6.1544285E0,1.2288146E1],"tree_param":{"num_deleted":"0","num_feature":"5","num_nodes":"29","size_leaf_vector":"1"}},{"base_weights":[-3.4281886E-3,4.067888E-2,-4.1841745E-1,1.2007881E-1,-1.1070641E-1,-2.4277811E-1,-5.937491E-1,1.391851E-1,-5.52088E-1,3.948735E-2,-2.0242447E-1,-6.636891E-2,-7.991546E-1,-7.155757E-1,-2.8916666E-1,5.288864E-2,1.1416866E-2,4.8978623E-2,-7.4922346E-2,8.424118E-2,-4.2446516E-3,-8.3089724E-2,-1.7691093E-2,5.1206197E-3,-5.0371177E-2,-9.86213E-2,1.1278283E-2,-3.8411852E-2,-9.0244696E-2,2.1652041E-2,-7.700672E-2],"categories":[],"categories_nodes":[],"categories_segments":[],"categories_sizes":[],"default_left":[0,0,0,0,0,0,0,0,0,0,0,0,0,0,0,0,0,0,0,0,0,0,0,0,0,0,0,0,0,0,0],"id":18,"left_children":[1,3,5,7,9,11,13,15,17,19,21,23,25,27,29,-1,-1,-1,-1,-1,-1,-1,-1,-1,-1,-1,-1,-1,-1,-1,-1],"loss_changes":[1.4934351E1,8.879131E0,2.2697744E0,6.29663E0,3.510866E0,3.9564486E0,1.2230015E0,4.538398E0,3.1576562E0,6.433205E0,2.3870754E0,1.6767513E0,1.7733669E0,1.316308E0,3.252267E0,0E0,0E0,0E0,0E0,0E0,0E0,0E0,0E0,0E0,0E0,0E0,0E0,0E0,0E0,0E0,0E0],"parents":[2147483647,0,0,1,1,2,2,3,3,4,4,5,5,6,6,7,7,8,8,9,9,10,10,11,11,12,12,13,13,14,14],"right_children":[2,4,6,8,10,12,14,16,18,20,22,24,26,28,30,-1,-1,-1,-1,-1,-1,-1,-1,-1,-1,-1,-1,-1,-1,-1,-1],"split_conditions":[3.39E0,7.8333336E-1,8.5E-1,9.2E-1,2.1E1,3.87E0,3.91E0,4.3E-1,2.22E0,5.2E-1,4.4E-1,9.1E-1,8.333333E-1,2.1E1,3E0,5.288864E-2,1.1416866E-2,4.8978623E-2,-7.4922346E-2,8.424118E-2,-4.2446516E-3,-8.3089724E-2,-1.7691093E-2,5.1206197E-3,-5.0371177E-2,-9.86213E-2,1.1278283E-2,-3.8411852E-2,-9.0244696E-2,2.1652041E-2,-7.700672E-2],"split_indices":[0,2,2,1,4,0,0,1,0,1,1,1,2,4,3,0,0,0,0,0,0,0,0,0,0,0,0,0,0,0,0],"split_type":[0,0,0,0,0,0,0,0,0,0,0,0,0,0,0,0,0,0,0,0,0,0,0,0,0,0,0,0,0,0,0],"sum_hessian":[8.139782E2,7.365917E2,7.738655E1,4.8330844E2,2.5328319E2,3.9850643E1,3.7535908E1,4.7072116E2,1.2587283E1,9.624529E1,1.570379E2,3.1106922E1,8.743723E0,2.5847916E1,1.1687993E1,2.7179688E1,4.4354147E2,1.7665308E0,1.0820752E1,8.052443E0,8.819285E1,4.89492E0,1.5214297E2,2.5211882E1,5.8950386E0,7.1878815E0,1.5558413E0,1.0420464E1,1.5427452E1,5.9651494E0,5.7228436E0],"tree_param":{"num_deleted":"0","num_feature":"5","num_nodes":"31","size_leaf_vector":"1"}},{"base_weights":[-3.6587133E-3,1.4514238E-1,-1.14361815E-1,1.8417987E-1,-7.0798196E-2,-4.9709883E-2,-3.7463942E-1,1.2656365E-1,3.044498E-1,3.1997394E-2,-5.59015E-1,4.8953462E-1,-7.0366494E-2,-2.908313E-1,-5.6506425E-1,2.0847552E-2,-1.1678691E-2,-8.000515E-2,3.3256065E-2,-2.1602487E-2,4.5768123E-2,-8.383608E-2,7.582981E-3,5.5162393E-4,1.3876425E-1,-3.058423E-3,-3.6302302E-2,-1.9190019E-2,-5.525632E-2,-3.8412247E-2,-8.6178035E-2],"categories":[],"categories_nodes":[],"categories_segments":[],"categories_sizes":[],"default_left":[0,0,0,0,0,0,0,0,0,0,0,0,0,0,0,0,0,0,0,0,0,0,0,0,0,0,0,0,0,0,0],"id":19,"left_children":[1,3,5,7,9,11,13,15,17,19,21,23,25,27,29,-1,-1,-1,-1,-1,-1,-1,-1,-1,-1,-1,-1,-1,-1,-1,-1],"loss_changes":[1.3386087E1,2.9353948E0,7.8220005E0,1.9978542E0,2.7178247E0,4.204718E0,1.3127861E0,4.0189886E0,3.199276E0,4.890761E0,1.7325864E0,6.0512114E0,4.197068E0,1.6114998E0,1.1306696E0,0E0,0E0,0E0,0E0,0E0,0E0,0E0,0E0,0E0,0E0,0E0,0E0,0E0,0E0,0E0,0E0],"parents":[2147483647,0,0,1,1,2,2,3,3,4,4,5,5,6,6,7,7,8,8,9,9,10,10,11,11,12,12,13,13,14,14],"right_children":[2,4,6,8,10,12,14,16,18,20,22,24,26,28,30,-1,-1,-1,-1,-1,-1,-1,-1,-1,-1,-1,-1,-1,-1,-1,-1],"split_conditions":[2.37E0,8.0833334E-1,8.6E-1,7.1666664E-1,2.3E1,4.6E-1,3.48E0,7E-1,3.4E-1,3E0,8.75E-1,2.78E0,3.39E0,9.6E-1,2.2E1,2.0847552E-2,-1.1678691E-2,-8.000515E-2,3.3256065E-2,-2.1602487E-2,4.5768123E-2,-8.383608E-2,7.582981E-3,5.5162393E-4,1.3876425E-1,-3.058423E-3,-3.6302302E-2,-1.9190019E-2,-5.525632E-2,-3.8412247E-2,-8.6178035E-2],"split_indices":[0,2,1,2,4,1,0,1,1,3,2,0,0,1,4,0,0,0,0,0,0,0,0,0,0,0,0,0,0,0,0],"split_type":[0,0,0,0,0,0,0,0,0,0,0,0,0,0,0,0,0,0,0,0,0,0,0,0,0,0,0,0,0,0,0],"sum_hessian":[8.1061285E2,3.456704E2,4.6494244E2,2.9287234E2,5.2798054E1,3.7338586E2,9.1556595E1,1.9940042E2,9.347194E1,4.4386745E1,8.411309E0,1.2938017E1,3.6044785E2,6.533097E1,2.6225626E1,1.4929199E2,5.0108414E1,1.6383691E0,9.183357E1,2.835714E1,1.6029606E1,5.618478E0,2.7928314E0,9.060938E0,3.87708E0,3.182861E2,4.216172E1,4.866823E1,1.6662737E1,1.7716455E1,8.5091715E0],"tree_param":{"num_deleted":"0","num_feature":"5","num_nodes":"31","size_leaf_vector":"1"}},{"base_weights":[-3.6915382E-3,1.4668576E-1,-9.4311126E-2,1.8950759E-1,-3.0270604E-2,-3.724361E-2,-3.4376916E-1,3.850236E-1,1.2678993E-1,6.0711163E-1,-1.790816E-1,5.448938E-2,-1.6033551E-1,-2.510115E-1,-5.452298E-1,2.8771264E-2,1.339182E-1,-6.2644407E-3,2.718099E-2,2.7290657E-2,1.19452916E-1,-1.05654E-2,-9.176647E-2,6.622163E-3,-7.9568155E-2,8.9234814E-2,-1.892194E-2,-5.7364505E-2,-1.5987346E-2,-3.480425E-2,-8.249819E-2],"categories":[],"categories_nodes":[],"categories_segments":[],"categories_sizes":[],"default_left":[0,0,0,0,0,0,0,0,0,0,0,0,0,0,0,0,0,0,0,0,0,0,0,0,0,0,0,0,0,0,0],"id":20,"left_children":[1,3,5,7,9,11,13,15,17,19,21,23,25,27,29,-1,-1,-1,-1,-1,-1,-1,-1,-1,-1,-1,-1,-1,-1,-1,-1],"loss_changes":[1.1023001E1,2.3106313E0,7.172274E0,2.9559975E0,5.81179E0,4.659401E0,1.6168013E0,5.0950356E0,5.1548347E0,1.953011E0,2.5885673E0,2.41406E0,5.5241046E0,1.8522277E0,1.2978745E0,0E0,0E0,0E0,0E0,0E0,0E0,0E0,0E0,0E0,0E0,0E0,0E0,0E0,0E0,0E0,0E0],"parents":[2147483647,0,0,1,1,2,2,3,3,4,4,5,5,6,6,7,7,8,8,9,9,10,10,11,11,12,12,13,13,14,14],"right_children":[2,4,6,8,10,12,14,16,18,20,22,24,26,28,30,-1,-1,-1,-1,-1,-1,-1,-1,-1,-1,-1,-1,-1,-1,-1,-1],"split_conditions":[2.29E0,2.3E1,8.6E-1,1.66E0,6E-1,7.8333336E-1,9.6E-1,7.6E-1,2.01E0,1.94E0,2.24E0,3.87E0,4.7E-1,2E1,2.2E1,2.8771264E-2,1.339182E-1,-6.2644407E-3,2.718099E-2,2.7290657E-2,1.19452916E-1,-1.05654E-2,-9.176647E-2,6.622163E-3,-7.9568155E-2,8.9234814E-2,-1.892194E-2,-5.7364505E-2,-1.5987346E-2,-3.480425E-2,-8.249819E-2],"split_indices":[0,4,1,0,2,2,1,1,0,0,0,0,1,4,4,0,0,0,0,0,0,0,0,0,0,0,0,0,0,0,0],"split_type":[0,0,0,0,0,0,0,0,0,0,0,0,0,0,0,0,0,0,0,0,0,0,0,0,0,0,0,0,0,0,0],"sum_hessian":[8.068859E2,3.031724E2,5.0371353E2,2.4404485E2,5.912755E1,4.108698E2,9.284374E1,5.8023483E1,1.8602136E2,1.0608752E1,4.85188E1,2.3574246E2,1.7512733E2,6.511094E1,2.7732801E1,5.3834633E1,4.188853E0,8.090549E1,1.0511587E2,7.6952224E0,2.9135296E0,4.517108E1,3.347717E0,2.3344308E2,2.2993774E0,3.87853E0,1.7124881E2,1.3175326E1,5.1935616E1,1.7583166E1,1.0149635E1],"tree_param":{"num_deleted":"0","num_feature":"5","num_nodes":"31","size_leaf_vector":"1"}},{"base_weights":[-3.4325896E-3,3.087362E-2,-3.5213244E-1,5.782861E-2,-2.5844705E-1,-1.8018568E-1,-5.31768E-1,1.1255373E-1,-6.063016E-2,-1.5240817E-1,-5.746536E-1,-1.6168928E-2,-7.4200165E-1,-6.6247857E-1,-2.1913439E-1,4.4941504E-2,9.071736E-3,9.409265E-3,-1.5570769E-2,-2.9501904E-2,1.2938621E-2,-7.818964E-2,-1.4957552E-2,-1.3771807E-2,3.7732996E-2,-9.485597E-2,1.5963895E-2,-3.231534E-2,-8.648886E-2,2.63794E-2,-7.241183E-2],"categories":[],"categories_nodes":[],"categories_segments":[],"categories_sizes":[],"default_left":[0,0,0,0,0,0,0,0,0,0,0,0,0,0,0,0,0,0,0,0,0,0,0,0,0,0,0,0,0,0,0],"id":21,"left_children":[1,3,5,7,9,11,13,15,17,19,21,23,25,27,29,-1,-1,-1,-1,-1,-1,-1,-1,-1,-1,-1,-1,-1,-1,-1,-1],"loss_changes":[9.635944E0,5.7348537E0,2.1327133E0,4.3616085E0,2.0144925E0,3.524251E0,1.2758179E0,3.3417077E0,3.1468675E0,1.9795649E0,1.2381997E0,1.5215963E0,1.7623348E0,1.3707371E0,3.0556288E0,0E0,0E0,0E0,0E0,0E0,0E0,0E0,0E0,0E0,0E0,0E0,0E0,0E0,0E0,0E0,0E0],"parents":[2147483647,0,0,1,1,2,2,3,3,4,4,5,5,6,6,7,7,8,8,9,9,10,10,11,11,12,12,13,13,14,14],"right_children":[2,4,6,8,10,12,14,16,18,20,22,24,26,28,30,-1,-1,-1,-1,-1,-1,-1,-1,-1,-1,-1,-1,-1,-1,-1,-1],"split_conditions":[3.39E0,8.7E-1,8.5E-1,7.8333336E-1,4E0,3.87E0,3.91E0,4.3E-1,2.1E1,3E0,8.4444445E-1,8.2222223E-1,8.333333E-1,2.1E1,3E0,4.4941504E-2,9.071736E-3,9.409265E-3,-1.5570769E-2,-2.9501904E-2,1.2938621E-2,-7.818964E-2,-1.4957552E-2,-1.3771807E-2,3.7732996E-2,-9.485597E-2,1.5963895E-2,-3.231534E-2,-8.648886E-2,2.63794E-2,-7.241183E-2],"split_indices":[0,1,2,2,3,0,0,1,4,3,2,2,2,4,3,0,0,0,0,0,0,0,0,0,0,0,0,0,0,0,0],"split_type":[0,0,0,0,0,0,0,0,0,0,0,0,0,0,0,0,0,0,0,0,0,0,0,0,0,0,0,0,0,0,0],"sum_hessian":[8.0359906E2,7.3244977E2,7.11493E1,6.7075775E2,6.1692017E1,3.7376072E1,3.3773228E1,4.5883624E2,2.1192152E2,4.7309063E1,1.4382956E1,2.972649E1,7.649581E0,2.3026812E1,1.0746416E1,2.6740469E1,4.3209576E2,8.066426E1,1.3125726E2,3.1380865E1,1.5928198E1,9.104651E0,5.278304E0,2.3207779E1,6.51871E0,6.1814313E0,1.4681497E0,9.573719E0,1.3453093E1,5.7373075E0,5.0091085E0],"tree_param":{"num_deleted":"0","num_feature":"5","num_nodes":"31","size_leaf_vector":"1"}},{"base_weights":[-3.6098014E-3,1.0140118E-1,-1.0303065E-1,5.086947E-1,8.2412325E-2,2.4592156E-2,-2.058482E-1,-2.2649272E-1,6.512345E-1,1.03554875E-1,-2.4146783E-1,4.5890387E-2,-9.203837E-2,-1.0754452E-1,-3.803075E-1,-7.721644E-2,4.6141576E-2,8.568487E-2,8.606104E-3,2.8435886E-2,5.178974E-3,-1.0865876E-2,-8.908114E-2,2.7641524E-3,1.095736E-1,-2.9580318E-3,-3.2344412E-2,-2.9182428E-2,-7.191573E-2],"categories":[],"categories_nodes":[],"categories_segments":[],"categories_sizes":[],"default_left":[0,0,0,0,0,0,0,0,0,0,0,0,0,0,0,0,0,0,0,0,0,0,0,0,0,0,0,0,0],"id":22,"left_children":[1,3,5,7,9,11,13,15,17,19,21,23,-1,25,27,-1,-1,-1,-1,-1,-1,-1,-1,-1,-1,-1,-1,-1,-1],"loss_changes":[8.3817835E0,2.977882E0,5.41618E0,1.9499111E0,2.5877845E0,3.7633064E0,3.877674E0,1.6832736E0,1.6303897E0,3.2799723E0,1.906885E0,3.4520192E0,0E0,2.4738154E0,2.247284E0,0E0,0E0,0E0,0E0,0E0,0E0,0E0,0E0,0E0,0E0,0E0,0E0,0E0,0E0],"parents":[2147483647,0,0,1,1,2,2,3,3,4,4,5,5,6,6,7,7,8,8,9,9,10,10,11,11,13,13,14,14],"right_children":[2,4,6,8,10,12,14,16,18,20,22,24,-1,26,28,-1,-1,-1,-1,-1,-1,-1,-1,-1,-1,-1,-1,-1,-1],"split_conditions":[6.8E-1,5.1666665E-1,2.68E0,4.4E-1,2.4E1,9.777778E-1,2.2E1,4.75E-1,6.1E-1,1.84E0,6.6E-1,9.6666664E-1,-9.203837E-2,3.41E0,9.1E-1,-7.721644E-2,4.6141576E-2,8.568487E-2,8.606104E-3,2.8435886E-2,5.178974E-3,-1.0865876E-2,-8.908114E-2,2.7641524E-3,1.095736E-1,-2.9580318E-3,-3.2344412E-2,-2.9182428E-2,-7.191573E-2],"split_indices":[1,2,0,1,4,2,4,2,1,0,1,2,0,0,1,0,0,0,0,0,0,0,0,0,0,0,0,0,0],"split_type":[0,0,0,0,0,0,0,0,0,0,0,0,0,0,0,0,0,0,0,0,0,0,0,0,0,0,0,0,0],"sum_hessian":[8.008305E2,3.894563E2,4.1137418E2,1.619965E1,3.7325665E2,1.838858E2,2.2748837E2,2.5351174E0,1.3664532E1,3.5102255E2,2.2234108E1,1.8076314E2,3.1226716E0,1.4653552E2,8.095285E1,1.3454113E0,1.1897061E0,9.640989E0,4.0235424E0,7.713034E1,2.738922E2,1.9427893E1,2.8062155E0,1.786835E2,2.0796235E0,1.0849394E2,3.804158E1,6.5666664E1,1.5286191E1],"tree_param":{"num_deleted":"0","num_feature":"5","num_nodes":"29","size_leaf_vector":"1"}},{"base_weights":[-3.5188291E-3,2.168528E-2,-3.6723727E-1,6.6282324E-2,-1.267644E-1,-1.8590833E-1,-5.753893E-1,1.6580509E-1,5.568199E-3,2.194774E-1,-1.7949711E-1,2.9315737E-1,-3.1474084E-1,3.3584278E-2,-6.347969E-1,7.0007155E-3,3.1085739E-2,-5.7149142E-2,2.9184497E-3,6.851464E-2,-1.6031787E-2,-3.7469514E-2,-3.6061292E-3,6.66685E-2,-4.4489656E-2,-6.916287E-2,-1.4650053E-3,-8.033117E-2,-4.5181718E-2],"categories":[],"categories_nodes":[],"categories_segments":[],"categories_sizes":[],"default_left":[0,0,0,0,0,0,0,0,0,0,0,0,0,0,0,0,0,0,0,0,0,0,0,0,0,0,0,0,0],"id":23,"left_children":[1,3,5,7,9,11,13,15,17,19,21,23,25,-1,27,-1,-1,-1,-1,-1,-1,-1,-1,-1,-1,-1,-1,-1,-1],"loss_changes":[7.3309736E0,4.9604983E0,1.8490648E0,3.478668E0,3.2007194E0,1.8928477E0,1.493463E0,3.0097194E0,4.905038E0,4.2367635E0,4.208932E0,2.1438422E0,2.644693E0,0E0,3.3232975E-1,0E0,0E0,0E0,0E0,0E0,0E0,0E0,0E0,0E0,0E0,0E0,0E0,0E0,0E0],"parents":[2147483647,0,0,1,1,2,2,3,3,4,4,5,5,6,6,7,7,8,8,9,9,10,10,11,11,12,12,14,14],"right_children":[2,4,6,8,10,12,14,16,18,20,22,24,26,-1,28,-1,-1,-1,-1,-1,-1,-1,-1,-1,-1,-1,-1,-1,-1],"split_conditions":[3.5E0,8.25E-1,3E0,2.17E0,5.7E-1,7E-1,6.4166665E-1,1.92E0,2.2E0,2.1E1,7.4E-1,3.76E0,2E1,3.3584278E-2,8.1E-1,7.0007155E-3,3.1085739E-2,-5.7149142E-2,2.9184497E-3,6.851464E-2,-1.6031787E-2,-3.7469514E-2,-3.6061292E-3,6.66685E-2,-4.4489656E-2,-6.916287E-2,-1.4650053E-3,-8.033117E-2,-4.5181718E-2],"split_indices":[0,2,3,0,1,1,2,0,0,4,1,0,4,0,1,0,0,0,0,0,0,0,0,0,0,0,0,0,0],"split_type":[0,0,0,0,0,0,0,0,0,0,0,0,0,0,0,0,0,0,0,0,0,0,0,0,0,0,0,0,0],"sum_hessian":[7.9782733E2,7.470036E2,5.0823727E1,5.748588E2,1.7214479E2,2.817371E1,2.2650019E1,2.1715948E2,3.5769934E2,2.2334549E1,1.4981024E2,5.7005672E0,2.247314E1,1.101487E0,2.1548532E1,1.3167744E2,8.548204E1,1.3151282E1,3.4454807E2,9.671852E0,1.2662697E1,6.2772507E1,8.7037735E1,3.8491957E0,1.8513718E0,9.383524E0,1.3089618E1,9.452813E0,1.2095718E1],"tree_param":{"num_deleted":"0","num_feature":"5","num_nodes":"29","size_leaf_vector":"1"}},{"base_weights":[-3.4895055E-3,8.7690845E-2,-9.079932E-2,2.8933147E-1,5.5249166E-2,-6.478068E-2,-4.8283872E-1,7.3380865E-2,5.3009695E-1,1.6118209E-1,-1.3127588E-2,3.580084E-2,-1.5357667E-1,-2.8222644E-1,-7.8373396E-1,6.2455725E-2,-9.018652E-3,9.757087E-2,2.4899956E-2,2.4016554E-2,-7.7119097E-3,-3.999452E-2,2.1834143E-3,5.5914596E-3,-8.877666E-2,-7.115358E-3,-3.033711E-2,-2.3755613E-3,-5.691594E-2,-8.623059E-2,-1.2038703E-2],"categories":[],"categories_nodes":[],"categories_segments":[],"categories_sizes":[],"default_left":[0,0,0,0,0,0,0,0,0,0,0,0,0,0,0,0,0,0,0,0,0,0,0,0,0,0,0,0,0,0,0],"id":24,"left_children":[1,3,5,7,9,11,13,15,17,19,21,23,25,27,29,-1,-1,-1,-1,-1,-1,-1,-1,-1,-1,-1,-1,-1,-1,-1,-1],"loss_changes":[6.349543E0,2.5363042E0,4.1245575E0,2.7602897E0,2.4455E0,3.4281266E0,1.3000674E0,2.7196627E0,2.9255595E0,2.510525E0,2.79367E0,3.402617E0,2.493691E0,1.2237774E0,3.922925E-1,0E0,0E0,0E0,0E0,0E0,0E0,0E0,0E0,0E0,0E0,0E0,0E0,0E0,0E0,0E0,0E0],"parents":[2147483647,0,0,1,1,2,2,3,3,4,4,5,5,6,6,7,7,8,8,9,9,10,10,11,11,12,12,13,13,14,14],"right_children":[2,4,6,8,10,12,14,16,18,20,22,24,26,28,30,-1,-1,-1,-1,-1,-1,-1,-1,-1,-1,-1,-1,-1,-1,-1,-1],"split_conditions":[6.8E-1,5.888889E-1,9.7E-1,5.7E-1,5.6E-1,2.68E0,2.2E1,4.2E-1,6.1E-1,4E0,5.7E-1,9.777778E-1,2.2E1,8.5833335E-1,9.916667E-1,6.2455725E-2,-9.018652E-3,9.757087E-2,2.4899956E-2,2.4016554E-2,-7.7119097E-3,-3.999452E-2,2.1834143E-3,5.5914596E-3,-8.877666E-2,-7.115358E-3,-3.033711E-2,-2.3755613E-3,-5.691594E-2,-8.623059E-2,-1.2038703E-2],"split_indices":[1,2,1,1,1,0,4,1,1,3,1,2,4,2,2,0,0,0,0,0,0,0,0,0,0,0,0,0,0,0,0],"split_type":[0,0,0,0,0,0,0,0,0,0,0,0,0,0,0,0,0,0,0,0,0,0,0,0,0,0,0,0,0,0,0],"sum_hessian":[7.9558704E2,3.8916528E2,4.0642175E2,5.2837334E1,3.3632794E2,3.8222006E2,2.4201708E1,2.8541916E1,2.4295418E1,1.3139952E2,2.0492844E2,1.7949652E2,2.0272354E2,1.5683314E1,8.5183935E0,5.8867764E0,2.265514E1,8.441847E0,1.5853572E1,9.8683624E1,3.2715897E1,1.6121391E1,1.8880704E2,1.7659013E2,2.9063804E0,1.3172049E2,7.100305E1,8.820526E0,6.862788E0,7.3480964E0,1.1702977E0],"tree_param":{"num_deleted":"0","num_feature":"5","num_nodes":"31","size_leaf_vector":"1"}},{"base_weights":[-3.3929264E-3,1.848499E-2,-3.3226562E-1,3.0399736E-2,-4.4821125E-1,-1.9563064E-1,-5.9511447E-1,6.335458E-2,-8.535019E-2,3.578924E-2,-6.2488127E-1,-7.0299774E-2,-1.1044294E-1,-2.997046E-1,-8.2704E-1,4.982933E-3,4.6009585E-2,-2.0135539E-2,4.193654E-3,6.890261E-2,-7.435706E-2,-2.7089966E-2,-7.856911E-2,4.2175617E-2,-2.48144E-2,-4.559788E-2,4.509326E-2,-9.1503926E-2,-2.6015539E-2],"categories":[],"categories_nodes":[],"categories_segments":[],"categories_sizes":[],"default_left":[0,0,0,0,0,0,0,0,0,0,0,0,0,0,0,0,0,0,0,0,0,0,0,0,0,0,0,0,0],"id":25,"left_children":[1,3,5,7,9,11,13,15,17,19,21,-1,23,25,27,-1,-1,-1,-1,-1,-1,-1,-1,-1,-1,-1,-1,-1,-1],"loss_changes":[5.717956E0,4.1578307E0,1.6638136E0,2.7811098E0,1.6142683E0,1.3964112E0,8.801527E-1,3.0195093E0,2.3958912E0,3.5283835E0,5.665989E-1,0E0,2.3316245E0,1.2390096E0,1.9369888E-1,0E0,0E0,0E0,0E0,0E0,0E0,0E0,0E0,0E0,0E0,0E0,0E0,0E0,0E0],"parents":[2147483647,0,0,1,1,2,2,3,3,4,4,5,5,6,6,7,7,8,8,9,9,10,10,12,12,13,13,14,14],"right_children":[2,4,6,8,10,12,14,16,18,20,22,-1,24,26,28,-1,-1,-1,-1,-1,-1,-1,-1,-1,-1,-1,-1,-1,-1],"split_conditions":[3.5E0,9.6E-1,2.2E1,8.25E-1,2E0,3.53E0,8.3E-1,8.1666666E-1,7.4E-1,3E0,9.9E-1,-7.0299774E-2,3.62E0,8.1E-1,2.4E1,4.982933E-3,4.6009585E-2,-2.0135539E-2,4.193654E-3,6.890261E-2,-7.435706E-2,-2.7089966E-2,-7.856911E-2,4.2175617E-2,-2.48144E-2,-4.559788E-2,4.509326E-2,-9.1503926E-2,-2.6015539E-2],"split_indices":[0,1,4,2,3,0,1,2,1,0,1,0,0,1,4,0,0,0,0,0,0,0,0,0,0,0,0,0,0],"split_type":[0,0,0,0,0,0,0,0,0,0,0,0,0,0,0,0,0,0,0,0,0,0,0,0,0,0,0,0,0],"sum_hessian":[7.928534E2,7.442844E2,4.8568954E1,7.266675E2,1.7616947E1,3.3104652E1,1.5464304E1,5.659812E2,1.6068628E2,4.9241896E0,1.2692758E1,3.7166169E0,2.9388035E1,7.8094463E0,7.6548576E0,5.48411E2,1.7570206E1,8.376424E1,7.692204E1,2.7419088E0,2.182281E0,4.8035555E0,7.889202E0,5.6168194E0,2.3771215E1,6.788667E0,1.0207794E0,6.094617E0,1.5602407E0],"tree_param":{"num_deleted":"0","num_feature":"5","num_nodes":"29","size_leaf_vector":"1"}},{"base_weights":[-3.4907914E-3,7.786058E-2,-8.204208E-2,7.0073836E-2,8.444974E-1,-4.65164E-2,-3.0531055E-1,9.181632E-2,-2.6557478E-1,1.2782447E-1,3.466297E-3,2.0960832E-2,-1.6581084E-1,4.0672514E-1,-3.4338903E-1,4.286578E-2,7.5032637E-3,4.1112736E-2,-4.861649E-2,-1.968257E-3,2.7134588E-2,5.7649124E-2,-1.8918095E-2,-1.8668722E-2,8.484747E-2,-5.9072584E-2,-2.2954436E-2],"categories":[],"categories_nodes":[],"categories_segments":[],"categories_sizes":[],"default_left":[0,0,0,0,0,0,0,0,0,0,0,0,0,0,0,0,0,0,0,0,0,0,0,0,0,0,0],"id":26,"left_children":[1,3,5,7,9,11,13,15,17,-1,-1,19,21,23,25,-1,-1,-1,-1,-1,-1,-1,-1,-1,-1,-1,-1],"loss_changes":[5.0717177E0,2.268401E0,3.1883235E0,2.8491962E0,1.3010197E0,2.8169413E0,1.6375608E0,2.0272162E0,3.7533808E0,0E0,0E0,2.286184E0,2.3015492E0,1.0135682E0,1.3563147E0,0E0,0E0,0E0,0E0,0E0,0E0,0E0,0E0,0E0,0E0,0E0,0E0],"parents":[2147483647,0,0,1,1,2,2,3,3,4,4,5,5,6,6,7,7,8,8,11,11,12,12,13,13,14,14],"right_children":[2,4,6,8,10,12,14,16,18,-1,-1,20,22,24,26,-1,-1,-1,-1,-1,-1,-1,-1,-1,-1,-1,-1],"split_conditions":[6.8E-1,9.8888886E-1,3.39E0,8.75E-1,3E0,2.2E1,6.4166665E-1,5.1666665E-1,5.3E-1,1.2782447E-1,3.466297E-3,3.15E0,1.42E0,6.111111E-1,8E-1,4.286578E-2,7.5032637E-3,4.1112736E-2,-4.861649E-2,-1.968257E-3,2.7134588E-2,5.7649124E-2,-1.8918095E-2,-1.8668722E-2,8.484747E-2,-5.9072584E-2,-2.2954436E-2],"split_indices":[1,2,0,2,3,4,2,2,1,0,0,0,0,2,1,0,0,0,0,0,0,0,0,0,0,0,0],"split_type":[0,0,0,0,0,0,0,0,0,0,0,0,0,0,0,0,0,0,0,0,0,0,0,0,0,0,0],"sum_hessian":[7.916648E2,3.8890524E2,4.0275955E2,3.860753E2,2.8299665E0,3.4851367E2,5.4245907E1,3.6327E2,2.280528E1,1.4662436E0,1.3637229E0,2.2312846E2,1.2538519E2,2.2622633E0,5.1983643E1,1.607673E1,3.4719327E2,5.394098E0,1.7411182E1,1.9276031E2,3.0368155E1,3.104648E0,1.2228055E2,1.2118068E0,1.0504565E0,1.5064948E1,3.6918697E1],"tree_param":{"num_deleted":"0","num_feature":"5","num_nodes":"27","size_leaf_vector":"1"}},{"base_weights":[-2.9652722E-3,2.5291022E-2,-2.1023363E-1,2.247886E-1,8.442481E-3,1.8762769E-1,-2.575551E-1,1.5666674E-1,1.0228789E0,3.9903244E-1,-3.641582E-3,8.957598E-1,-5.282068E-1,-5.454757E-1,-1.7223439E-1,2.957815E-2,-2.2775317E-2,1.3042001E-1,1.3606071E-2,5.1389147E-2,-2.0819848E-2,7.990762E-3,-5.5327294E-3,1.2436994E-1,-2.3774466E-2,1.7235648E-2,-7.135753E-2,-1.2548615E-2,-6.486857E-2,1.2622677E-2,-2.7777363E-2],"categories":[],"categories_nodes":[],"categories_segments":[],"categories_sizes":[],"default_left":[0,0,0,0,0,0,0,0,0,0,0,0,0,0,0,0,0,0,0,0,0,0,0,0,0,0,0,0,0,0,0],"id":27,"left_children":[1,3,5,7,9,11,13,15,17,19,21,23,25,27,29,-1,-1,-1,-1,-1,-1,-1,-1,-1,-1,-1,-1,-1,-1,-1,-1],"loss_changes":[4.6348705E0,2.3393338E0,1.8358455E0,2.7867725E0,3.037923E0,5.882145E0,2.0008068E0,2.80138E0,8.409443E-1,1.4541435E0,2.7034297E0,2.5575595E0,8.937893E-1,7.435465E-1,2.1531043E0,0E0,0E0,0E0,0E0,0E0,0E0,0E0,0E0,0E0,0E0,0E0,0E0,0E0,0E0,0E0,0E0],"parents":[2147483647,0,0,1,1,2,2,3,3,4,4,5,5,6,6,7,7,8,8,9,9,10,10,11,11,12,12,13,13,14,14],"right_children":[2,4,6,8,10,12,14,16,18,20,22,24,26,28,30,-1,-1,-1,-1,-1,-1,-1,-1,-1,-1,-1,-1,-1,-1,-1,-1],"split_conditions":[8.6E-1,1.57E0,2.24E0,7.6E-1,4.1E-1,2.1E1,2E1,6.5E-1,1.42E0,8.0833334E-1,2.1E1,8.0833334E-1,8.7E-1,8.8E-1,2.1E1,2.957815E-2,-2.2775317E-2,1.3042001E-1,1.3606071E-2,5.1389147E-2,-2.0819848E-2,7.990762E-3,-5.5327294E-3,1.2436994E-1,-2.3774466E-2,1.7235648E-2,-7.135753E-2,-1.2548615E-2,-6.486857E-2,1.2622677E-2,-2.7777363E-2],"split_indices":[1,0,0,1,1,4,4,1,0,2,4,2,1,1,4,0,0,0,0,0,0,0,0,0,0,0,0,0,0,0,0],"split_type":[0,0,0,0,0,0,0,0,0,0,0,0,0,0,0,0,0,0,0,0,0,0,0,0,0,0,0,0,0,0,0],"sum_hessian":[7.8948E2,6.9553735E2,9.394261E1,5.320571E1,6.4233167E2,9.670628E0,8.427199E1,5.0123653E1,3.0820575E0,1.831513E1,6.2401654E2,4.735113E0,4.935514E0,1.8031204E1,6.624078E1,3.6973995E1,1.3149656E1,1.9825052E0,1.0995522E0,1.5531103E1,2.7840276E0,2.3828549E2,3.8573102E2,3.5486166E0,1.1864965E0,1.0473728E0,3.8881412E0,3.9940705E0,1.4037133E1,1.7253235E1,4.898755E1],"tree_param":{"num_deleted":"0","num_feature":"5","num_nodes":"31","size_leaf_vector":"1"}},{"base_weights":[-2.5670375E-3,1.5313922E-2,-2.8562945E-1,2.5623143E-2,-4.0920344E-1,-1.1315565E-1,-4.9649724E-1,1.8396713E-1,6.452887E-3,3.9885193E-2,-5.8111864E-1,-6.9270694E-1,-1.348851E-2,3.3297364E-2,-5.5986327E-1,4.7732075E-3,5.3711742E-2,1.3495363E-2,-2.6079274E-3,6.225648E-2,-7.174074E-2,-2.3557147E-2,-7.4538514E-2,-2.301822E-2,-8.073215E-2,5.5075493E-2,-1.6357187E-2,-8.7115355E-2,-4.1947003E-2],"categories":[],"categories_nodes":[],"categories_segments":[],"categories_sizes":[],"default_left":[0,0,0,0,0,0,0,0,0,0,0,0,0,0,0,0,0,0,0,0,0,0,0,0,0,0,0,0,0],"id":28,"left_children":[1,3,5,7,9,11,13,15,17,19,21,23,25,-1,27,-1,-1,-1,-1,-1,-1,-1,-1,-1,-1,-1,-1,-1,-1],"loss_changes":[3.9946826E0,3.259919E0,1.6492898E0,2.2020373E0,1.3867993E0,1.555445E0,1.2798395E0,3.7437508E0,2.7144024E0,3.0171015E0,5.5306005E-1,2.384746E-2,2.1339147E0,0E0,4.955125E-1,0E0,0E0,0E0,0E0,0E0,0E0,0E0,0E0,0E0,0E0,0E0,0E0,0E0,0E0],"parents":[2147483647,0,0,1,1,2,2,3,3,4,4,5,5,6,6,7,7,8,8,9,9,10,10,11,11,12,12,14,14],"right_children":[2,4,6,8,10,12,14,16,18,20,22,24,26,-1,28,-1,-1,-1,-1,-1,-1,-1,-1,-1,-1,-1,-1,-1,-1],"split_conditions":[3.5E0,9.6E-1,3E0,5.888889E-1,2E0,7.083333E-1,6.4166665E-1,4E0,5.6E-1,3E0,9.9E-1,2E1,7E-1,3.3297364E-2,3.6E0,4.7732075E-3,5.3711742E-2,1.3495363E-2,-2.6079274E-3,6.225648E-2,-7.174074E-2,-2.3557147E-2,-7.4538514E-2,-2.301822E-2,-8.073215E-2,5.5075493E-2,-1.6357187E-2,-8.7115355E-2,-4.1947003E-2],"split_indices":[0,1,3,2,3,2,2,3,1,0,1,4,1,0,0,0,0,0,0,0,0,0,0,0,0,0,0,0,0],"split_type":[0,0,0,0,0,0,0,0,0,0,0,0,0,0,0,0,0,0,0,0,0,0,0,0,0,0,0,0,0],"sum_hessian":[7.873761E2,7.414828E2,4.589333E1,7.248205E2,1.666231E1,2.6090174E1,1.9803156E1,7.734702E1,6.4747345E2,4.8253074E0,1.1837003E1,2.9552984E0,2.3134874E1,1.1034936E0,1.8699661E1,5.6634315E1,2.0712704E1,1.3016774E2,5.173057E2,2.827594E0,1.9977134E0,4.598269E0,7.2387333E0,1.184319E0,1.7709795E0,4.299836E0,1.8835037E1,4.1944094E0,1.4505253E1],"tree_param":{"num_deleted":"0","num_feature":"5","num_nodes":"29","size_leaf_vector":"1"}},{"base_weights":[-2.6483762E-3,8.160546E-2,-5.549427E-2,9.861091E-3,1.7623755E-1,3.177319E-1,-6.945038E-2,1.210028E-1,-2.0611547E-1,5.46605E-1,9.280436E-2,-1.6632523E-2,1.19038E-1,-5.3523887E-2,-3.7827453E-1,1.7026072E-2,-6.1948277E-2,-8.979456E-3,-8.838043E-2,8.68205E-2,3.0467747E-2,-8.926102E-3,1.6598761E-2,1.4257084E-2,-9.247443E-2,-3.3645828E-3,-2.6895536E-2,-1.9226167E-2,-6.91443E-2],"categories":[],"categories_nodes":[],"categories_segments":[],"categories_sizes":[],"default_left":[0,0,0,0,0,0,0,0,0,0,0,0,0,0,0,0,0,0,0,0,0,0,0,0,0,0,0,0,0],"id":29,"left_children":[1,3,5,7,9,11,13,15,17,19,21,23,-1,25,27,-1,-1,-1,-1,-1,-1,-1,-1,-1,-1,-1,-1,-1,-1],"loss_changes":[3.50599E0,2.0590289E0,2.5424838E0,4.194493E0,3.9919915E0,5.161273E0,2.2779505E0,4.3115754E0,4.6020813E0,1.5910106E0,1.4535496E0,2.1162448E0,0E0,1.8987707E0,1.1923563E0,0E0,0E0,0E0,0E0,0E0,0E0,0E0,0E0,0E0,0E0,0E0,0E0,0E0,0E0],"parents":[2147483647,0,0,1,1,2,2,3,3,4,4,5,5,6,6,7,7,8,8,9,9,10,10,11,11,13,13,14,14],"right_children":[2,4,6,8,10,12,14,16,18,20,22,24,-1,26,28,-1,-1,-1,-1,-1,-1,-1,-1,-1,-1,-1,-1,-1,-1],"split_conditions":[2.29E0,2.01E0,4.6E-1,1.84E0,2.07E0,2.78E0,9.6E-1,2.4E1,8.25E-1,5.8E-1,5.7E-1,2.68E0,1.19038E-1,3.5E0,2.2E1,1.7026072E-2,-6.1948277E-2,-8.979456E-3,-8.838043E-2,8.68205E-2,3.0467747E-2,-8.926102E-3,1.6598761E-2,1.4257084E-2,-9.247443E-2,-3.3645828E-3,-2.6895536E-2,-1.9226167E-2,-6.91443E-2],"split_indices":[0,0,1,0,0,0,1,4,2,1,1,0,0,0,4,0,0,0,0,0,0,0,0,0,0,0,0,0,0],"split_type":[0,0,0,0,0,0,0,0,0,0,0,0,0,0,0,0,0,0,0,0,0,0,0,0,0,0,0,0,0],"sum_hessian":[7.854089E2,3.0253067E2,4.8287817E2,1.7270235E2,1.2982834E2,1.6620914E1,4.6625726E2,1.1431533E2,5.8387016E1,2.2848848E1,1.06979485E2,1.27258215E1,3.8950937E0,4.4450674E2,2.1750513E1,1.0790728E2,6.4080443E0,5.0800022E1,7.5869946E0,8.697868E0,1.4150979E1,3.0609488E1,7.6369995E1,1.1544865E1,1.1809564E0,4.08015E2,3.6491745E1,1.465801E1,7.0925026E0],"tree_param":{"num_deleted":"0","num_feature":"5","num_nodes":"29","size_leaf_vector":"1"}},{"base_weights":[-2.5686938E-3,5.484111E-3,-4.7624078E-1,3.242665E-2,-1.1537118E-1,-8.960626E-2,-2.547369E-1,3.8982168E-2,-6.053829E-1,-5.053567E-2,-4.3456098E-1,8.885673E-2,-4.9074858E-1,1.0966258E-2,-3.9632185E-4,-8.818414E-2,4.433757E-2,-9.897693E-3,5.8225986E-2,-8.1604965E-2,-2.4159614E-3,9.3076186E-4,-8.5009E-2],"categories":[],"categories_nodes":[],"categories_segments":[],"categories_sizes":[],"default_left":[0,0,0,0,0,0,0,0,0,0,0,0,0,0,0,0,0,0,0,0,0,0,0],"id":30,"left_children":[1,3,5,7,9,-1,11,13,15,17,19,-1,21,-1,-1,-1,-1,-1,-1,-1,-1,-1,-1],"loss_changes":[2.9945436E0,2.518324E0,9.921274E-1,2.6671872E0,2.8959394E0,0E0,3.1311812E0,1.9029226E0,2.2735162E0,3.6846492E0,3.6866193E0,0E0,1.6113412E0,0E0,0E0,0E0,0E0,0E0,0E0,0E0,0E0,0E0,0E0],"parents":[2147483647,0,0,1,1,2,2,3,3,4,4,6,6,7,7,8,8,9,9,10,10,12,12],"right_children":[2,4,6,8,10,-1,12,14,16,18,20,-1,22,-1,-1,-1,-1,-1,-1,-1,-1,-1,-1],"split_conditions":[1E0,8.5E-1,2.9E0,3.87E0,3.41E0,-8.960626E-2,3.05E0,2.1E1,8.333333E-1,2.4E1,3.73E0,8.885673E-2,2.1E1,1.0966258E-2,-3.9632185E-4,-8.818414E-2,4.433757E-2,-9.897693E-3,5.8225986E-2,-8.1604965E-2,-2.4159614E-3,9.3076186E-4,-8.5009E-2],"split_indices":[1,2,0,0,0,0,0,4,2,4,0,0,4,0,0,0,0,0,0,0,0,0,0],"split_type":[0,0,0,0,0,0,0,0,0,0,0,0,0,0,0,0,0,0,0,0,0,0,0],"sum_hessian":[7.833803E2,7.712568E2,1.2123561E1,6.312602E2,1.3999657E2,3.1354692E0,8.988092E0,6.2576733E2,5.492863E0,1.1732352E2,2.2673046E1,1.0648315E0,7.9232607E0,2.3592445E2,3.898429E2,4.472931E0,1.0199323E0,1.097645E2,7.5590158E0,1.1238176E1,1.1434869E1,3.720268E0,4.2029924E0],"tree_param":{"num_deleted":"0","num_feature":"5","num_nodes":"23","size_leaf_vector":"1"}},{"base_weights":[-2.626392E-3,7.0657924E-2,-4.894427E-2,7.717154E-2,-8.029224E-2,2.8712016E-1,-6.1577428E-2,6.742529E-2,1.303443E-1,-2.2670718E-2,1.1002016E0,-4.7980122E-2,-3.374993E-1,1.0206224E-2,-7.6382305E-3,-2.1539494E-2,6.411715E-2,1.2838447E-1,4.039738E-2,2.6541774E-4,-1.1006689E-2,-1.5954008E-2,-6.539511E-2],"categories":[],"categories_nodes":[],"categories_segments":[],"categories_sizes":[],"default_left":[0,0,0,0,0,0,0,0,0,0,0,0,0,0,0,0,0,0,0,0,0,0,0],"id":31,"left_children":[1,3,5,7,-1,9,11,13,-1,15,17,19,21,-1,-1,-1,-1,-1,-1,-1,-1,-1,-1],"loss_changes":[2.6621966E0,1.7903287E0,2.0578046E0,3.5263882E0,0E0,4.454608E0,1.7244356E0,1.507495E0,0E0,1.8926555E0,1.0428572E-1,1.3939728E0,1.1134098E0,0E0,0E0,0E0,0E0,0E0,0E0,0E0,0E0,0E0,0E0],"parents":[2147483647,0,0,1,1,2,2,3,3,5,5,6,6,7,7,9,9,10,10,11,11,12,12],"right_children":[2,4,6,8,-1,10,12,14,-1,16,18,20,22,-1,-1,-1,-1,-1,-1,-1,-1,-1,-1],"split_conditions":[2.29E0,9.777778E-1,4.6E-1,9.6666664E-1,-8.029224E-2,2.78E0,9.6E-1,2.3E1,1.303443E-1,4.4E-1,3E0,7.8333336E-1,2.2E1,1.0206224E-2,-7.6382305E-3,-2.1539494E-2,6.411715E-2,1.2838447E-1,4.039738E-2,2.6541774E-4,-1.1006689E-2,-1.5954008E-2,-6.539511E-2],"split_indices":[0,2,1,2,0,0,1,4,0,1,0,2,4,0,0,0,0,0,0,0,0,0,0],"split_type":[0,0,0,0,0,0,0,0,0,0,0,0,0,0,0,0,0,0,0,0,0,0,0],"sum_hessian":[7.82278E2,3.0274625E2,4.7953177E2,3.0141052E2,1.3357247E0,1.6586048E1,4.629457E2,3.000805E2,1.3300174E0,1.2714017E1,3.87203E0,4.4232217E2,2.0623545E1,2.4206737E2,5.8013145E1,1.0376951E1,2.3370657E0,2.3960311E0,1.4759988E0,2.4415831E2,1.9816386E2,1.4163013E1,6.4605317E0],"tree_param":{"num_deleted":"0","num_feature":"5","num_nodes":"23","size_leaf_vector":"1"}},{"base_weights":[-2.185512E-3,4.843796E-3,-4.3730444E-1,7.836187E-2,-2.9084688E-2,-8.689268E-2,-2.1445663E-1,-6.858255E-4,2.7014455E-1,-5.9777296E-1,-1.7296657E-2,8.378189E-2,-4.535494E-1,9.89904E-3,-1.9547572E-2,-1.6685005E-2,3.5104387E-2,2.6711156E-3,-1.2042769E-1,3.6970686E-2,-3.012099E-3,2.1290926E-3,-8.256683E-2],"categories":[],"categories_nodes":[],"categories_segments":[],"categories_sizes":[],"default_left":[0,0,0,0,0,0,0,0,0,0,0,0,0,0,0,0,0,0,0,0,0,0,0],"id":32,"left_children":[1,3,5,7,9,-1,11,13,15,17,19,-1,21,-1,-1,-1,-1,-1,-1,-1,-1,-1,-1],"loss_changes":[2.3923848E0,1.923081E0,1.0097473E0,3.6906216E0,3.5267158E0,0E0,2.7773294E0,3.3856664E0,2.5704994E0,4.0791254E0,2.58171E0,0E0,1.5041782E0,0E0,0E0,0E0,0E0,0E0,0E0,0E0,0E0,0E0,0E0],"parents":[2147483647,0,0,1,1,2,2,3,3,4,4,6,6,7,7,8,8,9,9,10,10,12,12],"right_children":[2,4,6,8,10,-1,12,14,16,18,20,-1,22,-1,-1,-1,-1,-1,-1,-1,-1,-1,-1],"split_conditions":[1E0,2.17E0,2.9E0,2.01E0,2.19E0,-8.689268E-2,3.05E0,1.84E0,2E1,6.5E-1,2.22E0,8.378189E-2,2.1E1,9.89904E-3,-1.9547572E-2,-1.6685005E-2,3.5104387E-2,2.6711156E-3,-1.2042769E-1,3.6970686E-2,-3.012099E-3,2.1290926E-3,-8.256683E-2],"split_indices":[1,0,0,0,0,0,0,0,4,1,0,0,4,0,0,0,0,0,0,0,0,0,0],"split_type":[0,0,0,0,0,0,0,0,0,0,0,0,0,0,0,0,0,0,0,0,0,0,0],"sum_hessian":[7.8049414E2,7.6905896E2,1.1435212E1,2.424328E2,5.2662616E2,2.9065237E0,8.528688E0,1.7237915E2,7.005365E1,9.6849785E0,5.1694116E2,1.115423E0,7.4132657E0,1.1435447E2,5.802468E1,1.0776995E1,5.9276657E1,5.2427564E0,4.442222E0,1.568811E1,5.0125305E2,3.6713028E0,3.741963E0],"tree_param":{"num_deleted":"0","num_feature":"5","num_nodes":"23","size_leaf_vector":"1"}},{"base_weights":[-2.2320242E-3,1.665742E-2,-1.4899759E-1,1.6803399E-1,3.8735417E-3,-1.0947607E-1,-5.5017626E-1,1.0369252E-1,9.300577E-1,6.0202205E-1,-2.0336641E-3,-1.5279074E-1,6.553874E-1,-6.183859E-1,-6.878549E-3,-2.5949546E-3,5.1059622E-2,1.2021704E-1,1.0921518E-2,9.05818E-2,-4.0351618E-2,7.370041E-3,-4.9121142E-3,-7.808459E-3,-4.063655E-2,1.1736788E-1,-2.4735956E-2,-8.334504E-2,-1.5618439E-2],"categories":[],"categories_nodes":[],"categories_segments":[],"categories_sizes":[],"default_left":[0,0,0,0,0,0,0,0,0,0,0,0,0,0,0,0,0,0,0,0,0,0,0,0,0,0,0,0,0],"id":33,"left_children":[1,3,5,7,9,11,13,15,17,19,21,23,25,27,-1,-1,-1,-1,-1,-1,-1,-1,-1,-1,-1,-1,-1,-1,-1],"loss_changes":[2.1660779E0,1.339144E0,1.352337E0,2.5458503E0,2.2606287E0,2.828396E0,2.116518E-1,2.6941519E0,7.779119E-1,2.2767828E0,2.2652147E0,1.4600375E0,2.4438462E0,5.3138995E-1,0E0,0E0,0E0,0E0,0E0,0E0,0E0,0E0,0E0,0E0,0E0,0E0,0E0,0E0,0E0],"parents":[2147483647,0,0,1,1,2,2,3,3,4,4,5,5,6,6,7,7,8,8,9,9,10,10,11,11,12,12,13,13],"right_children":[2,4,6,8,10,12,14,16,18,20,22,24,26,28,-1,-1,-1,-1,-1,-1,-1,-1,-1,-1,-1,-1,-1,-1,-1],"split_conditions":[8.6E-1,1.57E0,9.8333335E-1,7.6E-1,3.3E-1,9.6666664E-1,3.97E0,1.48E0,1.42E0,7.916667E-1,2.1E1,4E0,9.5E-1,3E0,-6.878549E-3,-2.5949546E-3,5.1059622E-2,1.2021704E-1,1.0921518E-2,9.05818E-2,-4.0351618E-2,7.370041E-3,-4.9121142E-3,-7.808459E-3,-4.063655E-2,1.1736788E-1,-2.4735956E-2,-8.334504E-2,-1.5618439E-2],"split_indices":[1,0,2,1,1,2,0,0,0,2,4,3,1,3,0,0,0,0,0,0,0,0,0,0,0,0,0,0,0],"split_type":[0,0,0,0,0,0,0,0,0,0,0,0,0,0,0,0,0,0,0,0,0,0,0,0,0,0,0,0,0],"sum_hessian":[7.794279E2,6.913361E2,8.809183E1,5.2891586E1,6.384445E2,8.135058E1,6.7412467E0,4.9821022E1,3.0705636E0,5.256648E0,6.3318787E2,7.774791E1,3.6026723E0,5.6553426E0,1.0859041E0,3.8493107E1,1.1327917E1,1.9571904E0,1.1133732E0,4.113145E0,1.1435033E0,2.4253564E2,3.9065222E2,6.106528E1,1.6682625E1,2.0980222E0,1.5046502E0,3.3113415E0,2.344001E0],"tree_param":{"num_deleted":"0","num_feature":"5","num_nodes":"29","size_leaf_vector":"1"}},{"base_weights":[-1.8331703E-3,1.0455976E-2,-2.1198459E-1,2.947272E-1,1.892877E-3,-7.3399687E-1,-1.349873E-1,-3.6097845E-1,3.9553478E-1,6.377595E-2,-3.6675386E-2,-2.3795612E-2,-8.441912E-2,2.996157E-1,-2.2839493E-1,-8.641092E-2,3.5195004E-2,7.728596E-2,-1.3798022E-3,7.1462095E-3,-7.0838E-2,-4.2868084E-3,9.2697255E-2,7.6699324E-2,-4.5126233E-2,-6.57207E-3,-4.3256517E-2],"categories":[],"categories_nodes":[],"categories_segments":[],"categories_sizes":[],"default_left":[0,0,0,0,0,0,0,0,0,0,0,0,0,0,0,0,0,0,0,0,0,0,0,0,0,0,0],"id":34,"left_children":[1,3,5,7,9,11,13,15,17,19,21,-1,-1,23,25,-1,-1,-1,-1,-1,-1,-1,-1,-1,-1,-1,-1],"loss_changes":[2.0147061E0,1.7938602E0,1.6331972E0,1.5672082E0,1.7126809E0,8.9618206E-2,1.6428701E0,1.5216749E0,2.969209E0,1.6857257E0,2.678011E0,0E0,0E0,2.9057598E0,1.0506773E0,0E0,0E0,0E0,0E0,0E0,0E0,0E0,0E0,0E0,0E0,0E0,0E0],"parents":[2147483647,0,0,1,1,2,2,3,3,4,4,5,5,6,6,7,7,8,8,9,9,10,10,13,13,14,14],"right_children":[2,4,6,8,10,12,14,16,18,20,22,-1,-1,24,26,-1,-1,-1,-1,-1,-1,-1,-1,-1,-1,-1,-1],"split_conditions":[3.5E0,5.1666665E-1,3.53E0,4.4E-1,2.1E1,2E0,3.61E0,4.75E-1,6.1E-1,3.47E0,3.47E0,-2.3795612E-2,-8.441912E-2,8.5833335E-1,3E0,-8.641092E-2,3.5195004E-2,7.728596E-2,-1.3798022E-3,7.1462095E-3,-7.0838E-2,-4.2868084E-3,9.2697255E-2,7.6699324E-2,-4.5126233E-2,-6.57207E-3,-4.3256517E-2],"split_indices":[0,2,0,1,4,3,0,2,1,0,0,0,0,2,3,0,0,0,0,0,0,0,0,0,0,0,0],"split_type":[0,0,0,0,0,0,0,0,0,0,0,0,0,0,0,0,0,0,0,0,0,0,0,0,0,0,0],"sum_hessian":[7.78255E2,7.3615656E2,4.209841E1,2.0549564E1,7.15607E2,4.314563E0,3.7783848E1,2.394381E0,1.8155182E1,2.7450616E2,4.4110083E2,1.3585335E0,2.956029E0,6.293608E0,3.149024E1,1.279413E0,1.1149682E0,8.984831E0,9.170352E0,2.7269913E2,1.8070345E0,4.392337E2,1.8671372E0,3.8658693E0,2.427739E0,1.8261856E1,1.3228385E1],"tree_param":{"num_deleted":"0","num_feature":"5","num_nodes":"27","size_leaf_vector":"1"}},{"base_weights":[-1.7995117E-3,4.345523E-3,-4.0022117E-1,4.3565255E-2,-4.8757195E-2,-8.4087074E-2,-1.7847453E-1,6.0565764E-1,3.264564E-2,-1.3362628E-1,4.7767162E-2,7.8421146E-2,-4.1833586E-1,1.5730955E-2,9.214448E-2,1.2717546E-3,2.6443144E-2,3.359931E-2,-1.746519E-2,3.2963045E-2,-2.5305212E-3,3.3340477E-3,-8.020206E-2],"categories":[],"categories_nodes":[],"categories_segments":[],"categories_sizes":[],"default_left":[0,0,0,0,0,0,0,0,0,0,0,0,0,0,0,0,0,0,0,0,0,0,0],"id":35,"left_children":[1,3,5,7,9,-1,11,13,15,17,19,-1,21,-1,-1,-1,-1,-1,-1,-1,-1,-1,-1],"loss_changes":[1.9077488E0,1.6009163E0,1.0064024E0,2.6936305E0,2.6817434E0,0E0,2.4392447E0,1.0397401E0,2.0045877E0,3.411963E0,3.17065E0,0E0,1.408179E0,0E0,0E0,0E0,0E0,0E0,0E0,0E0,0E0,0E0,0E0],"parents":[2147483647,0,0,1,1,2,2,3,3,4,4,6,6,7,7,8,8,9,9,10,10,12,12],"right_children":[2,4,6,8,10,-1,12,14,16,18,20,-1,22,-1,-1,-1,-1,-1,-1,-1,-1,-1,-1],"split_conditions":[1E0,7.6666665E-1,2.9E0,3.6E-1,3E0,-8.4087074E-2,3.05E0,6.4166665E-1,7.4444443E-1,5.1E-1,2.17E0,7.8421146E-2,2.1E1,1.5730955E-2,9.214448E-2,1.2717546E-3,2.6443144E-2,3.359931E-2,-1.746519E-2,3.2963045E-2,-2.5305212E-3,3.3340477E-3,-8.020206E-2],"split_indices":[1,2,0,1,3,0,0,2,2,1,0,0,4,0,0,0,0,0,0,0,0,0,0],"split_type":[0,0,0,0,0,0,0,0,0,0,0,0,0,0,0,0,0,0,0,0,0,0,0],"sum_hessian":[7.774985E2,7.66663E2,1.0835492E1,4.4107828E2,3.2558472E2,2.6926632E0,8.142829E0,7.367502E0,4.337108E2,1.7304791E2,1.5253682E2,1.1715128E0,6.9713163E0,3.6638272E0,3.703675E0,4.003454E2,3.3365364E1,1.332517E1,1.5972275E2,3.0680687E1,1.2185613E2,3.6213462E0,3.34997E0],"tree_param":{"num_deleted":"0","num_feature":"5","num_nodes":"23","size_leaf_vector":"1"}},{"base_weights":[-1.5434007E-3,4.1311597E-3,-3.7900206E-1,1.3754914E-2,-1.7994866E-1,-8.081635E-2,-1.572194E-1,2.6623717E-1,6.100946E-3,-6.8780553E-1,-1.0448402E-1,2.4440081E-1,-6.0110945E-1,-3.433699E-2,3.61431E-2,6.6411444E-3,-3.138801E-3,-1.901327E-2,-8.08505E-2,8.373643E-3,-3.4579422E-2,5.8359828E-2,-2.5989066E-3,-5.260036E-3,-7.523229E-2],"categories":[],"categories_nodes":[],"categories_segments":[],"categories_sizes":[],"default_left":[0,0,0,0,0,0,0,0,0,0,0,0,0,0,0,0,0,0,0,0,0,0,0,0,0],"id":36,"left_children":[1,3,5,7,9,-1,11,13,15,17,19,21,23,-1,-1,-1,-1,-1,-1,-1,-1,-1,-1,-1,-1],"loss_changes":[1.6657008E0,1.36022E0,9.6922827E-1,1.4076875E0,1.390206E0,0E0,1.7220124E0,1.3679295E0,1.6047521E0,1.3197851E-1,1.5910594E0,5.057907E-1,3.3248973E-1,0E0,0E0,0E0,0E0,0E0,0E0,0E0,0E0,0E0,0E0,0E0,0E0],"parents":[2147483647,0,0,1,1,2,2,3,3,4,4,6,6,7,7,8,8,9,9,10,10,11,11,12,12],"right_children":[2,4,6,8,10,-1,12,14,16,18,20,22,24,-1,-1,-1,-1,-1,-1,-1,-1,-1,-1,-1,-1],"split_conditions":[1E0,3.5E0,8E-1,5.1666665E-1,3.53E0,-8.081635E-2,9.0833336E-1,4.4E-1,2.1E1,2E0,3E0,3.02E0,2E0,-3.433699E-2,3.61431E-2,6.6411444E-3,-3.138801E-3,-1.901327E-2,-8.08505E-2,8.373643E-3,-3.4579422E-2,5.8359828E-2,-2.5989066E-3,-5.260036E-3,-7.523229E-2],"split_indices":[1,0,2,2,0,0,2,1,4,3,3,0,3,0,0,0,0,0,0,0,0,0,0,0,0],"split_type":[0,0,0,0,0,0,0,0,0,0,0,0,0,0,0,0,0,0,0,0,0,0,0,0,0],"sum_hessian":[7.7593915E2,7.6542114E2,1.0517976E1,7.282721E2,3.7149033E1,2.6827555E0,7.83522E0,2.0433863E1,7.0783826E2,3.7562428E0,3.3392788E1,4.3494034E0,3.4858165E0,2.4077747E0,1.8026089E1,2.7103622E2,4.3680203E2,1.2358388E0,2.520404E0,1.9126911E1,1.4265878E1,1.415427E0,2.9339767E0,1.0445797E0,2.4412367E0],"tree_param":{"num_deleted":"0","num_feature":"5","num_nodes":"25","size_leaf_vector":"1"}},{"base_weights":[-1.7227533E-3,4.321521E-2,-4.64297E-2,3.5354383E-2,8.1471425E-1,-3.7047362E-1,-2.869622E-2,4.7926504E-2,-3.260819E-1,1.2166013E-1,3.517894E-3,2.4507266E-1,-7.423217E-1,-1.2351971E-2,-3.58757E-1,5.3793355E-3,-7.8439355E-2,-4.9247324E-2,7.83005E-2,-1.5129859E-2,1.3860951E-1,-8.72596E-2,2.842989E-2,-2.630642E-3,5.2676905E-2,3.1873997E-2,-5.341786E-2],"categories":[],"categories_nodes":[],"categories_segments":[],"categories_sizes":[],"default_left":[0,0,0,0,0,0,0,0,0,0,0,0,0,0,0,0,0,0,0,0,0,0,0,0,0,0,0],"id":37,"left_children":[1,3,5,7,9,11,13,15,17,-1,-1,19,21,23,25,-1,-1,-1,-1,-1,-1,-1,-1,-1,-1,-1,-1],"loss_changes":[1.5616978E0,2.3223658E0,2.2284694E0,1.7642629E0,1.1680295E0,4.79027E0,1.9943603E0,1.8624065E0,2.7964213E0,0E0,0E0,3.9789085E0,1.9599133E0,2.6775827E0,2.2437112E0,0E0,0E0,0E0,0E0,0E0,0E0,0E0,0E0,0E0,0E0,0E0,0E0],"parents":[2147483647,0,0,1,1,2,2,3,3,4,4,5,5,6,6,7,7,8,8,11,11,12,12,13,13,14,14],"right_children":[2,4,6,8,10,12,14,16,18,-1,-1,20,22,24,26,-1,-1,-1,-1,-1,-1,-1,-1,-1,-1,-1,-1],"split_conditions":[6.8E-1,9.8888886E-1,6.9E-1,9.0833336E-1,3E0,7E-1,9.777778E-1,3.76E0,3.37E0,1.2166013E-1,3.517894E-3,4E0,8.888889E-1,9.583333E-1,7.5E-1,5.3793355E-3,-7.8439355E-2,-4.9247324E-2,7.83005E-2,-1.5129859E-2,1.3860951E-1,-8.72596E-2,2.842989E-2,-2.630642E-3,5.2676905E-2,3.1873997E-2,-5.341786E-2],"split_indices":[1,2,1,2,3,2,2,0,0,0,0,3,2,2,1,0,0,0,0,0,0,0,0,0,0,0,0],"split_type":[0,0,0,0,0,0,0,0,0,0,0,0,0,0,0,0,0,0,0,0,0,0,0,0,0,0,0],"sum_hessian":[7.75337E2,3.866861E2,3.8865085E2,3.8382114E2,2.8649404E0,1.9133484E1,3.6951736E2,3.7175742E2,1.2063727E1,1.5204183E0,1.3445221E0,7.333975E0,1.179951E1,3.530711E2,1.6446272E1,3.7008414E2,1.673277E0,1.0973402E1,1.0903252E0,6.0868945E0,1.24708E0,1.0603941E1,1.195569E0,3.450901E2,7.981004E0,3.2145073E0,1.3231765E1],"tree_param":{"num_deleted":"0","num_feature":"5","num_nodes":"27","size_leaf_vector":"1"}},{"base_weights":[-1.4191848E-3,5.468498E-3,-2.7807236E-1,5.8255732E-2,-2.7939608E-2,-6.456965E-1,-7.676459E-2,4.5381907E-2,1.0873634E0,2.4624698E-1,-5.1458374E-2,-7.7764015E-3,-7.3974115E-1,-7.866013E-2,1.9542089E-1,2.191226E-3,3.0624364E-2,-2.5832726E-2,1.9392382E-1,8.894008E-2,7.0907474E-3,-5.804948E-2,-3.815796E-3,-8.73918E-2,-1.45328855E-2,4.208468E-2,-6.418593E-2],"categories":[],"categories_nodes":[],"categories_segments":[],"categories_sizes":[],"default_left":[0,0,0,0,0,0,0,0,0,0,0,0,0,0,0,0,0,0,0,0,0,0,0,0,0,0,0],"id":38,"left_children":[1,3,5,7,9,11,13,15,17,19,21,-1,23,-1,25,-1,-1,-1,-1,-1,-1,-1,-1,-1,-1,-1,-1],"loss_changes":[1.478983E0,1.3375187E0,1.3457544E0,3.8447425E0,3.0085785E0,2.9158878E-1,2.7268336E0,1.7769561E0,4.6140285E0,4.095377E0,2.9944415E0,0E0,3.1088018E-1,0E0,2.2382786E0,0E0,0E0,0E0,0E0,0E0,0E0,0E0,0E0,0E0,0E0,0E0,0E0],"parents":[2147483647,0,0,1,1,2,2,3,3,4,4,5,5,6,6,7,7,8,8,9,9,10,10,12,12,14,14],"right_children":[2,4,6,8,10,12,14,16,18,20,22,-1,24,-1,26,-1,-1,-1,-1,-1,-1,-1,-1,-1,-1,-1,-1],"split_conditions":[3.8E0,2.1E1,7.9E-1,3.73E0,1.57E0,2E1,2E1,9.0833336E-1,2E0,5.75E-1,1.65E0,-7.7764015E-3,4E0,-7.866013E-2,9.8E-1,2.191226E-3,3.0624364E-2,-2.5832726E-2,1.9392382E-1,8.894008E-2,7.0907474E-3,-5.804948E-2,-3.815796E-3,-8.73918E-2,-1.45328855E-2,4.208468E-2,-6.418593E-2],"split_indices":[0,4,1,0,0,4,4,2,3,2,0,0,3,0,1,0,0,0,0,0,0,0,0,0,0,0,0],"split_type":[0,0,0,0,0,0,0,0,0,0,0,0,0,0,0,0,0,0,0,0,0,0,0,0,0,0,0],"sum_hessian":[7.7436755E2,7.565133E2,1.7854265E1,2.929257E2,4.6358762E2,5.536363E0,1.23179035E1,2.9033774E2,2.587939E0,3.587534E1,4.2771228E2,1.0460694E0,4.4902935E0,2.8902998E0,9.427604E0,2.6736685E2,2.2970911E1,1.2732944E0,1.3146446E0,6.812887E0,2.906245E1,9.443496E0,4.182688E2,3.279736E0,1.2105575E0,7.8196397E0,1.6079637E0],"tree_param":{"num_deleted":"0","num_feature":"5","num_nodes":"27","size_leaf_vector":"1"}},{"base_weights":[-1.3087144E-3,3.7946862E-3,-3.523254E-1,2.2918964E-2,-8.412919E-2,-8.116248E-2,-1.2543915E-1,2.8261408E-2,-5.4779345E-1,-2.4130301E-1,3.172024E-2,9.033357E-2,-3.8458565E-1,2.5327557E-3,9.22408E-2,-8.4346876E-2,3.757221E-2,-3.0799035E-2,6.309142E-2,6.823424E-2,-1.9860412E-3,4.9389265E-3,-7.800468E-2],"categories":[],"categories_nodes":[],"categories_segments":[],"categories_sizes":[],"default_left":[0,0,0,0,0,0,0,0,0,0,0,0,0,0,0,0,0,0,0,0,0,0,0],"id":39,"left_children":[1,3,5,7,9,-1,11,13,15,17,19,-1,21,-1,-1,-1,-1,-1,-1,-1,-1,-1,-1],"loss_changes":[1.3898057E0,1.2882035E0,1.0567876E0,1.933575E0,2.4999628E0,0E0,2.64678E0,1.6141143E0,1.9234241E0,3.5793097E0,2.6875927E0,0E0,1.3412396E0,0E0,0E0,0E0,0E0,0E0,0E0,0E0,0E0,0E0,0E0],"parents":[2147483647,0,0,1,1,2,2,3,3,4,4,6,6,7,7,8,8,9,9,10,10,12,12],"right_children":[2,4,6,8,10,-1,12,14,16,18,20,-1,22,-1,-1,-1,-1,-1,-1,-1,-1,-1,-1],"split_conditions":[1E0,8.5E-1,2.9E0,3.87E0,8.9166665E-1,-8.116248E-2,3.03E0,3.84E0,8.25E-1,2.4E1,5.3E-1,9.033357E-2,2.1E1,2.5327557E-3,9.22408E-2,-8.4346876E-2,3.757221E-2,-3.0799035E-2,6.309142E-2,6.823424E-2,-1.9860412E-3,4.9389265E-3,-7.800468E-2],"split_indices":[1,2,0,0,2,0,0,0,2,4,1,0,4,0,0,0,0,0,0,0,0,0,0],"split_type":[0,0,0,0,0,0,0,0,0,0,0,0,0,0,0,0,0,0,0,0,0,0,0],"sum_hessian":[7.7408386E2,7.639658E2,1.0118042E1,6.2808966E2,1.3587613E2,2.4933574E0,7.6246843E0,6.232063E2,4.883359E0,5.7195564E1,7.8680565E1,1.034008E0,6.5906763E0,6.221931E2,1.0131992E0,3.7647138E0,1.1186451E0,5.3734093E1,3.461474E0,4.881258E0,7.379931E1,3.5595613E0,3.0311153E0],"tree_param":{"num_deleted":"0","num_feature":"5","num_nodes":"23","size_leaf_vector":"1"}},{"base_weights":[-1.147344E-3,1.2917633E-2,-1.13659315E-1,-6.218097E-3,1.3540967E-1,-5.382528E-2,-3.2656848E-1,1.8165937E-3,-6.7846256E-1,5.405868E-1,5.775299E-2,-1.7122005E-1,1.9840217E-1,-6.6839117E-3,-4.3688816E-1,-1.9572019E-4,9.656472E-2,-2.8449645E-2,-8.325575E-2,6.78837E-2,-3.55871E-2,4.4427857E-2,-5.8850353E-3,4.7570903E-2,-2.74099E-2,-3.0711502E-2,5.5467315E-2,-6.663965E-2,5.952241E-2,-6.9153816E-2,2.2078829E-2],"categories":[],"categories_nodes":[],"categories_segments":[],"categories_sizes":[],"default_left":[0,0,0,0,0,0,0,0,0,0,0,0,0,0,0,0,0,0,0,0,0,0,0,0,0,0,0,0,0,0,0],"id":40,"left_children":[1,3,5,7,9,11,13,15,17,19,21,23,25,27,29,-1,-1,-1,-1,-1,-1,-1,-1,-1,-1,-1,-1,-1,-1,-1,-1],"loss_changes":[1.2266781E0,1.6160781E0,1.0796952E0,3.2255301E0,2.8997283E0,2.060343E0,6.569418E-1,2.1511624E0,1.9132638E-1,2.0835376E0,3.5996752E0,3.2742214E0,4.168357E0,2.703924E0,2.4786084E0,0E0,0E0,0E0,0E0,0E0,0E0,0E0,0E0,0E0,0E0,0E0,0E0,0E0,0E0,0E0,0E0],"parents":[2147483647,0,0,1,1,2,2,3,3,4,4,5,5,6,6,7,7,8,8,9,9,10,10,11,11,12,12,13,13,14,14],"right_children":[2,4,6,8,10,12,14,16,18,20,22,24,26,28,30,-1,-1,-1,-1,-1,-1,-1,-1,-1,-1,-1,-1,-1,-1,-1,-1],"split_conditions":[8.6E-1,7.9E-1,4E0,3.76E0,8E-1,3E0,7.5555557E-1,3.73E0,6.9E-1,9.222222E-1,6.9166666E-1,2.23E0,2.83E0,2.5E0,2.4E1,-1.9572019E-4,9.656472E-2,-2.8449645E-2,-8.325575E-2,6.78837E-2,-3.55871E-2,4.4427857E-2,-5.8850353E-3,4.7570903E-2,-2.74099E-2,-3.0711502E-2,5.5467315E-2,-6.663965E-2,5.952241E-2,-6.9153816E-2,2.2078829E-2],"split_indices":[1,1,3,0,1,3,2,0,1,2,2,0,0,0,4,0,0,0,0,0,0,0,0,0,0,0,0,0,0,0,0],"split_type":[0,0,0,0,0,0,0,0,0,0,0,0,0,0,0,0,0,0,0,0,0,0,0,0,0,0,0,0,0,0,0],"sum_hessian":[7.732349E2,6.8810144E2,8.513349E1,5.9595105E2,9.215036E1,6.743499E1,1.76985E1,5.898979E2,6.053183E0,1.3862246E1,7.828812E1,4.6236298E1,2.1198692E1,4.8104978E0,1.2888002E1,5.8859125E2,1.306609E0,2.5021958E0,3.5509872E0,1.2220393E1,1.6418518E0,1.7492495E1,6.0795616E1,5.846713E0,4.0389584E1,8.820769E0,1.2377922E1,2.2439303E0,2.5665672E0,9.253568E0,3.634435E0],"tree_param":{"num_deleted":"0","num_feature":"5","num_nodes":"31","size_leaf_vector":"1"}},{"base_weights":[-1.0980031E-3,3.784451E-2,-4.0071063E-2,3.0472884E-2,7.427904E-1,-3.432177E-1,-2.3731431E-2,1.414389E-2,2.9395008E-1,1.0905188E-1,3.4359598E-3,2.2068162E-1,-6.9907767E-1,2.6954865E-2,-1.1860779E-1,2.814341E-3,-5.1112052E-2,6.444952E-2,-3.0528416E-3,-1.52224405E-2,1.2696002E-1,-8.283353E-2,2.584227E-2,-1.2881964E-2,9.721517E-3,-7.90705E-3,-5.636639E-2],"categories":[],"categories_nodes":[],"categories_segments":[],"categories_sizes":[],"default_left":[0,0,0,0,0,0,0,0,0,0,0,0,0,0,0,0,0,0,0,0,0,0,0,0,0,0,0],"id":41,"left_children":[1,3,5,7,9,11,13,15,17,-1,-1,19,21,23,25,-1,-1,-1,-1,-1,-1,-1,-1,-1,-1,-1,-1],"loss_changes":[1.1757902E0,1.9911675E0,1.9097317E0,1.6503236E0,9.399195E-1,4.113081E0,1.7751123E0,2.6848948E0,2.5665753E0,0E0,0E0,3.4761503E0,1.7407026E0,2.6499462E0,2.2163396E0,0E0,0E0,0E0,0E0,0E0,0E0,0E0,0E0,0E0,0E0,0E0,0E0],"parents":[2147483647,0,0,1,1,2,2,3,3,4,4,5,5,6,6,7,7,8,8,11,11,12,12,13,13,14,14],"right_children":[2,4,6,8,10,12,14,16,18,-1,-1,20,22,24,26,-1,-1,-1,-1,-1,-1,-1,-1,-1,-1,-1,-1],"split_conditions":[6.8E-1,9.8888886E-1,6.9E-1,6.7E-1,3E0,7E-1,2.2E1,9.25E-1,2.32E0,1.0905188E-1,3.4359598E-3,4E0,8.888889E-1,2E1,3.5E0,2.814341E-3,-5.1112052E-2,6.444952E-2,-3.0528416E-3,-1.52224405E-2,1.2696002E-1,-8.283353E-2,2.584227E-2,-1.2881964E-2,9.721517E-3,-7.90705E-3,-5.636639E-2],"split_indices":[1,2,1,1,3,2,4,2,0,0,0,3,2,4,0,0,0,0,0,0,0,0,0,0,0,0,0],"split_type":[0,0,0,0,0,0,0,0,0,0,0,0,0,0,0,0,0,0,0,0,0,0,0,0,0,0,0],"sum_hessian":[7.727148E2,3.8652338E2,3.8619144E2,3.8355576E2,2.9676182E0,1.872803E1,3.674634E2,3.621643E2,2.1391443E1,1.6287923E0,1.338826E0,7.39295E0,1.1335078E1,2.3997578E2,1.2748763E2,3.536842E2,8.480087E0,9.808616E0,1.15828285E1,6.0846443E0,1.3083057E0,1.0105752E1,1.2293261E0,7.433462E1,1.6564117E2,1.1816767E2,9.319958E0],"tree_param":{"num_deleted":"0","num_feature":"5","num_nodes":"27","size_leaf_vector":"1"}},{"base_weights":[-9.207602E-4,3.5651969E-3,-3.2115284E-1,1.0387905E-1,-8.231927E-3,-7.857721E-2,-1.00025296E-1,3.9983952E-1,5.424807E-3,3.387456E-1,-1.3670124E-2,8.342806E-2,-3.5560432E-1,3.8982488E-3,1.09311774E-1,-9.206241E-3,5.6020975E-2,6.5866406E-3,1.0811348E-1,-1.2718034E-2,9.181456E-4,6.380913E-3,-7.609817E-2],"categories":[],"categories_nodes":[],"categories_segments":[],"categories_sizes":[],"default_left":[0,0,0,0,0,0,0,0,0,0,0,0,0,0,0,0,0,0,0,0,0,0,0],"id":42,"left_children":[1,3,5,7,9,-1,11,13,15,17,19,-1,21,-1,-1,-1,-1,-1,-1,-1,-1,-1,-1],"loss_changes":[1.1113275E0,9.0394944E-1,1.0194215E0,2.3398433E0,1.2948217E0,0E0,2.299382E0,4.9732685E0,3.3683271E0,2.0741153E0,1.7498652E0,0E0,1.2874343E0,0E0,0E0,0E0,0E0,0E0,0E0,0E0,0E0,0E0,0E0],"parents":[2147483647,0,0,1,1,2,2,3,3,4,4,6,6,7,7,8,8,9,9,10,10,12,12],"right_children":[2,4,6,8,10,-1,12,14,16,18,20,-1,22,-1,-1,-1,-1,-1,-1,-1,-1,-1,-1],"split_conditions":[1E0,5E-1,2.9E0,1.84E0,4.9166667E-1,-7.857721E-2,3.03E0,1.66E0,2.78E0,2.64E0,1.92E0,8.342806E-2,2.1E1,3.8982488E-3,1.09311774E-1,-9.206241E-3,5.6020975E-2,6.5866406E-3,1.0811348E-1,-1.2718034E-2,9.181456E-4,6.380913E-3,-7.609817E-2],"split_indices":[1,1,0,0,2,0,0,0,0,0,0,0,4,0,0,0,0,0,0,0,0,0,0],"split_type":[0,0,0,0,0,0,0,0,0,0,0,0,0,0,0,0,0,0,0,0,0,0,0],"sum_hessian":[7.7181305E2,7.621257E2,9.687337E0,7.9375E1,6.827507E2,2.3004005E0,7.3869367E0,1.9049543E1,6.032546E1,9.589884E0,6.731608E2,1.1003118E0,6.286625E0,1.3223061E1,5.826483E0,5.2018745E1,8.306714E0,7.808459E0,1.7814246E0,1.1204355E2,5.6111725E2,3.5039473E0,2.7826777E0],"tree_param":{"num_deleted":"0","num_feature":"5","num_nodes":"23","size_leaf_vector":"1"}},{"base_weights":[-5.876772E-4,5.4528438E-2,-2.4399351E-2,-2.0130012E-2,2.6114094E-1,-2.9326597E-1,-1.1573829E-2,6.713723E-2,-1.894629E-1,1.6464716E-1,8.2796085E-1,-8.6927466E-2,-9.7859955E-1,5.618309E-1,-2.5300445E-2,1.1087599E-2,-5.860725E-2,-8.399419E-3,-8.279242E-2,4.0448017E-2,-7.411107E-3,1.339451E-1,1.1943164E-2,3.295553E-2,-3.6722604E-2,-1.1114216E-1,-2.8719995E-2,1.4570204E-2,1.0099759E-1,4.2822685E-2,-3.2763574E-3],"categories":[],"categories_nodes":[],"categories_segments":[],"categories_sizes":[],"default_left":[0,0,0,0,0,0,0,0,0,0,0,0,0,0,0,0,0,0,0,0,0,0,0,0,0,0,0,0,0,0,0],"id":43,"left_children":[1,3,5,7,9,11,13,15,17,19,21,23,25,27,29,-1,-1,-1,-1,-1,-1,-1,-1,-1,-1,-1,-1,-1,-1,-1,-1],"loss_changes":[1.0152621E0,3.6053302E0,1.859364E0,2.5598176E0,3.2558336E0,3.3871036E0,4.0805907E0,3.335876E0,3.8954275E0,3.1362147E0,3.019761E0,2.452238E0,1.9363356E-1,2.113342E0,1.7250537E0,0E0,0E0,0E0,0E0,0E0,0E0,0E0,0E0,0E0,0E0,0E0,0E0,0E0,0E0,0E0,0E0],"parents":[2147483647,0,0,1,1,2,2,3,3,4,4,5,5,6,6,7,7,8,8,9,9,10,10,11,11,12,12,13,13,14,14],"right_children":[2,4,6,8,10,12,14,16,18,20,22,24,26,28,30,-1,-1,-1,-1,-1,-1,-1,-1,-1,-1,-1,-1,-1,-1,-1,-1],"split_conditions":[2.15E0,2.01E0,2.2E0,1.84E0,7.9E-1,7.5E-1,2.22E0,2.4E1,8.25E-1,6.3E-1,2.1E1,2.17E0,8E-1,6.4E-1,4.1E-1,1.1087599E-2,-5.860725E-2,-8.399419E-3,-8.279242E-2,4.0448017E-2,-7.411107E-3,1.339451E-1,1.1943164E-2,3.295553E-2,-3.6722604E-2,-1.1114216E-1,-2.8719995E-2,1.4570204E-2,1.0099759E-1,4.2822685E-2,-3.2763574E-3],"split_indices":[0,0,0,0,1,1,0,4,2,1,4,0,2,1,1,0,0,0,0,0,0,0,0,0,0,0,0,0,0,0,0],"split_type":[0,0,0,0,0,0,0,0,0,0,0,0,0,0,0,0,0,0,0,0,0,0,0,0,0,0,0,0,0,0,0],"sum_hessian":[7.7157404E2,2.323865E2,5.3918756E2,1.7136658E2,6.1019928E1,2.3553802E1,5.156337E2,1.1348472E2,5.7881863E1,5.3245964E1,7.7739644E0,1.8969387E1,4.584416E0,1.1121536E1,5.045122E2,1.07140854E2,6.3438644E0,5.0646946E1,7.2349133E0,2.6216923E1,2.702904E1,3.9976087E0,3.776356E0,7.5602417E0,1.1409145E1,3.3360462E0,1.2483696E0,6.453867E0,4.66767E0,7.2549787E0,4.9725723E2],"tree_param":{"num_deleted":"0","num_feature":"5","num_nodes":"31","size_leaf_vector":"1"}},{"base_weights":[-5.124424E-4,3.593273E-3,-3.007389E-1,1.2280843E-1,-5.594659E-3,-7.594608E-2,-7.866987E-2,-6.5689944E-2,1.6570996E-1,5.0923353E-1,-1.0013589E-2,3.1518266E-1,-5.5098116E-1,-1.6716838E-2,2.7282784E-2,8.152609E-2,-4.2428147E-2,-1.50576E-2,9.612189E-4,6.0686905E-2,4.2178114E-3,-6.781147E-2,-1.6837334E-2],"categories":[],"categories_nodes":[],"categories_segments":[],"categories_sizes":[],"default_left":[0,0,0,0,0,0,0,0,0,0,0,0,0,0,0,0,0,0,0,0,0,0,0],"id":44,"left_children":[1,3,5,7,9,-1,11,-1,13,15,17,19,21,-1,-1,-1,-1,-1,-1,-1,-1,-1,-1],"loss_changes":[9.5187575E-1,8.3525777E-1,1.0015088E0,1.9340439E0,1.6166204E0,0E0,1.6869873E0,0E0,1.9182012E0,2.0736005E0,1.9416491E0,3.7831098E-1,8.3459735E-2,0E0,0E0,0E0,0E0,0E0,0E0,0E0,0E0,0E0,0E0],"parents":[2147483647,0,0,1,1,2,2,3,3,4,4,6,6,8,8,9,9,10,10,11,11,12,12],"right_children":[2,4,6,8,10,-1,12,-1,14,16,18,20,22,-1,-1,-1,-1,-1,-1,-1,-1,-1,-1],"split_conditions":[1E0,1.57E0,8E-1,3.4E-1,3.3E-1,-7.594608E-2,9.0833336E-1,-6.5689944E-2,1.25E0,7.916667E-1,1.92E0,3.02E0,3.56E0,-1.6716838E-2,2.7282784E-2,8.152609E-2,-4.2428147E-2,-1.50576E-2,9.612189E-4,6.0686905E-2,4.2178114E-3,-6.781147E-2,-1.6837334E-2],"split_indices":[1,0,2,1,1,0,2,0,0,2,0,0,0,0,0,0,0,0,0,0,0,0,0],"split_type":[0,0,0,0,0,0,0,0,0,0,0,0,0,0,0,0,0,0,0,0,0,0,0],"sum_hessian":[7.703458E2,7.6092786E2,9.417957E0,5.356361E1,7.0736426E2,2.2827053E0,7.1352515E0,2.0470996E0,5.1516514E1,5.047651E0,7.023166E2,4.072196E0,3.0630558E0,1.2405309E1,3.9111202E1,3.8968506E0,1.1508001E0,8.522826E1,6.170883E2,1.377503E0,2.6946929E0,1.7193866E0,1.3436693E0],"tree_param":{"num_deleted":"0","num_feature":"5","num_nodes":"23","size_leaf_vector":"1"}},{"base_weights":[-6.317529E-4,4.6924297E-3,-2.2690059E-1,5.1549066E-2,-2.5115447E-2,-5.486227E-1,-1.5421783E-3,3.966554E-2,9.56688E-1,4.8311436E-1,-3.553366E-2,-7.202334E-1,-8.721064E-3,-7.511607E-2,2.9248673E-1,1.728694E-3,2.85779E-2,-2.5732478E-2,1.6496785E-1,9.189909E-2,1.2834323E-2,-1.674278E-3,-2.7704462E-2,-8.624654E-2,-9.445305E-3,1.1497948E-1,-7.3251775E-3],"categories":[],"categories_nodes":[],"categories_segments":[],"categories_sizes":[],"default_left":[0,0,0,0,0,0,0,0,0,0,0,0,0,0,0,0,0,0,0,0,0,0,0,0,0,0,0],"id":45,"left_children":[1,3,5,7,9,11,13,15,17,19,21,23,-1,-1,25,-1,-1,-1,-1,-1,-1,-1,-1,-1,-1,-1,-1],"loss_changes":[9.301257E-1,1.0550319E0,1.2860538E0,3.120781E0,2.4622464E0,5.159209E-1,2.7413826E0,1.5972549E0,3.5897167E0,1.3270535E0,2.0531657E0,3.8044524E-1,0E0,0E0,2.8865395E0,0E0,0E0,0E0,0E0,0E0,0E0,0E0,0E0,0E0,0E0,0E0,0E0],"parents":[2147483647,0,0,1,1,2,2,3,3,4,4,5,5,6,6,7,7,8,8,9,9,10,10,11,11,14,14],"right_children":[2,4,6,8,10,12,14,16,18,20,22,24,-1,-1,26,-1,-1,-1,-1,-1,-1,-1,-1,-1,-1,-1,-1],"split_conditions":[3.8E0,2.1E1,8.1E-1,3.73E0,4.9166667E-1,9.166667E-1,2E1,9.0833336E-1,2E0,1.78E0,9.0833336E-1,4E0,-8.721064E-3,-7.511607E-2,8.5E-1,1.728694E-3,2.85779E-2,-2.5732478E-2,1.6496785E-1,9.189909E-2,1.2834323E-2,-1.674278E-3,-2.7704462E-2,-8.624654E-2,-9.445305E-3,1.1497948E-1,-7.3251775E-3],"split_indices":[0,4,1,0,2,2,4,2,3,0,2,3,0,0,1,0,0,0,0,0,0,0,0,0,0,0,0],"split_type":[0,0,0,0,0,0,0,0,0,0,0,0,0,0,0,0,0,0,0,0,0,0,0,0,0,0,0],"sum_hessian":[7.701991E2,7.5344946E2,1.674966E1,2.9266458E2,4.6078488E2,6.308783E0,1.0440877E1,2.8990228E2,2.762292E0,8.344498E0,4.5244037E2,4.1896243E0,2.119159E0,2.503516E0,7.9373612E0,2.6672018E2,2.3182087E1,1.2322515E0,1.5300405E0,3.0306385E0,5.313859E0,4.207714E2,3.1668995E1,3.1055486E0,1.0840758E0,1.7325114E0,6.2048497E0],"tree_param":{"num_deleted":"0","num_feature":"5","num_nodes":"27","size_leaf_vector":"1"}},{"base_weights":[-4.117216E-4,7.3054694E-3,-1.4210673E-1,1.2578917E-2,-2.526635E-1,-5.6782466E-1,-4.0972266E-2,8.348207E-3,7.0080155E-1,2.5729124E-2,-5.950492E-1,2.295596E-2,-8.825501E-2,7.470777E-1,-1.5580574E-1,1.3909915E-3,-4.4578504E-2,1.2816891E-1,1.3016881E-2,-4.773711E-2,1.0640483E-1,-6.7987405E-2,-1.1009117E-2,-5.8238536E-2,1.3345724E-1,-8.123414E-3,-5.7360567E-2],"categories":[],"categories_nodes":[],"categories_segments":[],"categories_sizes":[],"default_left":[0,0,0,0,0,0,0,0,0,0,0,0,0,0,0,0,0,0,0,0,0,0,0,0,0,0,0],"id":46,"left_children":[1,3,5,7,9,11,13,15,17,19,21,-1,-1,23,25,-1,-1,-1,-1,-1,-1,-1,-1,-1,-1,-1,-1],"loss_changes":[8.437914E-1,1.0064903E0,1.6927223E0,2.0854526E0,1.4067295E0,2.1030874E0,3.128325E0,1.8117943E0,1.283777E0,5.21448E0,1.961546E-1,0E0,0E0,4.2182937E0,8.8426113E-1,0E0,0E0,0E0,0E0,0E0,0E0,0E0,0E0,0E0,0E0,0E0,0E0],"parents":[2147483647,0,0,1,1,2,2,3,3,4,4,5,5,6,6,7,7,8,8,9,9,10,10,13,13,14,14],"right_children":[2,4,6,8,10,12,14,16,18,20,22,-1,-1,24,26,-1,-1,-1,-1,-1,-1,-1,-1,-1,-1,-1,-1],"split_conditions":[3.5E0,9.6E-1,3.56E0,9.5E-1,3.02E0,6.7E-1,3.61E0,9.3E-1,2.62E0,2.86E0,9.5555556E-1,2.295596E-2,-8.825501E-2,7.7E-1,9.8E-1,1.3909915E-3,-4.4578504E-2,1.2816891E-1,1.3016881E-2,-4.773711E-2,1.0640483E-1,-6.7987405E-2,-1.1009117E-2,-5.8238536E-2,1.3345724E-1,-8.123414E-3,-5.7360567E-2],"split_indices":[0,1,0,1,0,1,0,1,0,0,2,0,0,1,1,0,0,0,0,0,0,0,0,0,0,0,0],"split_type":[0,0,0,0,0,0,0,0,0,0,0,0,0,0,0,0,0,0,0,0,0,0,0,0,0,0,0],"sum_hessian":[7.6970233E2,7.308464E2,3.8855934E1,7.1724866E2,1.35977125E1,6.572967E0,3.2282967E1,7.1387244E2,3.3762562E0,8.009814E0,5.5878983E0,1.9367206E0,4.6362467E0,3.4056675E0,2.8877298E1,7.061931E2,7.6792808E0,1.0556012E0,2.320655E0,5.7594266E0,2.2503877E0,4.4139276E0,1.1739707E0,1.0464087E0,2.359259E0,2.551725E1,3.360049E0],"tree_param":{"num_deleted":"0","num_feature":"5","num_nodes":"27","size_leaf_vector":"1"}},{"base_weights":[-4.406988E-4,4.8712924E-2,-2.1698575E-2,-1.9161873E-2,2.3583163E-1,-2.7444553E-1,-9.716321E-3,2.1834275E-1,-7.302242E-2,1.4718321E-1,7.4732965E-1,-8.094725E-2,-9.355722E-1,5.082417E-1,-2.2301758E-2,6.849449E-2,3.211267E-3,-4.95067E-2,3.632346E-4,-3.7111226E-2,2.4206406E-2,1.0248651E-1,-1.8076047E-2,2.9750952E-2,-3.3797473E-2,-1.0645205E-1,-2.7423052E-2,-1.578505E-2,7.354255E-2,-4.4943433E-2,-1.4911877E-3],"categories":[],"categories_nodes":[],"categories_segments":[],"categories_sizes":[],"default_left":[0,0,0,0,0,0,0,0,0,0,0,0,0,0,0,0,0,0,0,0,0,0,0,0,0,0,0,0,0,0,0],"id":47,"left_children":[1,3,5,7,9,11,13,15,17,19,21,23,25,27,29,-1,-1,-1,-1,-1,-1,-1,-1,-1,-1,-1,-1,-1,-1,-1,-1],"loss_changes":[8.0586994E-1,2.9618282E0,1.6278094E0,2.2135317E0,2.7037954E0,3.036943E0,3.3688023E0,2.7592988E0,4.55643E0,2.7519433E0,2.4831018E0,2.0379899E0,1.6980028E-1,1.9713261E0,1.5834891E0,0E0,0E0,0E0,0E0,0E0,0E0,0E0,0E0,0E0,0E0,0E0,0E0,0E0,0E0,0E0,0E0],"parents":[2147483647,0,0,1,1,2,2,3,3,4,4,5,5,6,6,7,7,8,8,9,9,10,10,11,11,12,12,13,13,14,14],"right_children":[2,4,6,8,10,12,14,16,18,20,22,24,26,28,30,-1,-1,-1,-1,-1,-1,-1,-1,-1,-1,-1,-1,-1,-1,-1,-1],"split_conditions":[2.15E0,2.01E0,2.2E0,2E1,7.9E-1,7.5E-1,2.22E0,5.6E-1,2E0,2E1,8.0833334E-1,2.17E0,8E-1,6.4166665E-1,2.23E0,6.849449E-2,3.211267E-3,-4.95067E-2,3.632346E-4,-3.7111226E-2,2.4206406E-2,1.0248651E-1,-1.8076047E-2,2.9750952E-2,-3.3797473E-2,-1.0645205E-1,-2.7423052E-2,-1.578505E-2,7.354255E-2,-4.4943433E-2,-1.4911877E-3],"split_indices":[0,0,0,4,1,1,0,1,3,4,2,0,2,2,0,0,0,0,0,0,0,0,0,0,0,0,0,0,0,0,0],"split_type":[0,0,0,0,0,0,0,0,0,0,0,0,0,0,0,0,0,0,0,0,0,0,0,0,0,0,0,0,0,0,0],"sum_hessian":[7.692284E2,2.3184718E2,5.373812E2,1.707922E2,6.1054977E1,2.3331673E1,5.1404956E2,3.1007408E1,1.3978479E2,5.3134E1,7.920978E0,1.891738E1,4.414293E0,1.125993E1,5.0278964E2,8.081399E0,2.2926008E1,2.0647224E1,1.19137566E2,7.7712836E0,4.5362717E1,6.0172963E0,1.9036816E0,7.5876064E0,1.1329773E1,3.1838658E0,1.2304268E0,2.9413161E0,8.318613E0,7.533582E0,4.9525604E2],"tree_param":{"num_deleted":"0","num_feature":"5","num_nodes":"31","size_leaf_vector":"1"}},{"base_weights":[-4.6736715E-4,3.0778654E-2,-3.1919874E-2,2.3689488E-2,6.97533E-1,-3.170909E-1,-1.6795386E-2,8.427518E-3,2.691991E-1,1.0069992E-1,3.8925845E-3,2.052006E-1,-6.598339E-1,-2.5358363E-3,-3.1735083E-1,2.1086968E-3,-4.7854476E-2,5.8163702E-2,-2.379584E-3,-1.4168734E-2,1.15572624E-1,-7.884471E-2,2.4072759E-2,-1.5823971E-3,4.9849354E-2,3.0055437E-2,-4.91063E-2],"categories":[],"categories_nodes":[],"categories_segments":[],"categories_sizes":[],"default_left":[0,0,0,0,0,0,0,0,0,0,0,0,0,0,0,0,0,0,0,0,0,0,0,0,0,0,0],"id":48,"left_children":[1,3,5,7,9,11,13,15,17,-1,-1,19,21,23,25,-1,-1,-1,-1,-1,-1,-1,-1,-1,-1,-1,-1],"loss_changes":[7.573903E-1,1.8108912E0,1.6511495E0,1.4349923E0,7.826315E-1,3.5880656E0,1.5668173E0,2.2427561E0,2.065972E0,0E0,0E0,2.9350338E0,1.5660896E0,2.3395162E0,1.925061E0,0E0,0E0,0E0,0E0,0E0,0E0,0E0,0E0,0E0,0E0,0E0,0E0],"parents":[2147483647,0,0,1,1,2,2,3,3,4,4,5,5,6,6,7,7,8,8,11,11,12,12,13,13,14,14],"right_children":[2,4,6,8,10,12,14,16,18,-1,-1,20,22,24,26,-1,-1,-1,-1,-1,-1,-1,-1,-1,-1,-1,-1],"split_conditions":[6.8E-1,9.8888886E-1,6.9E-1,6.7E-1,3E0,7E-1,9.777778E-1,9.25E-1,2.32E0,1.0069992E-1,3.8925845E-3,4E0,8.888889E-1,9.583333E-1,7.5E-1,2.1086968E-3,-4.7854476E-2,5.8163702E-2,-2.379584E-3,-1.4168734E-2,1.15572624E-1,-7.884471E-2,2.4072759E-2,-1.5823971E-3,4.9849354E-2,3.0055437E-2,-4.91063E-2],"split_indices":[1,2,1,1,3,2,2,2,0,0,0,3,2,2,1,0,0,0,0,0,0,0,0,0,0,0,0],"split_type":[0,0,0,0,0,0,0,0,0,0,0,0,0,0,0,0,0,0,0,0,0,0,0,0,0,0,0],"sum_hessian":[7.686726E2,3.856128E2,3.830598E2,3.825806E2,3.0322015E0,1.8287378E1,3.6477246E2,3.611634E2,2.1417196E1,1.7030092E0,1.3291924E0,7.4048066E0,1.0882571E1,3.4921283E2,1.5559612E1,3.5294485E2,8.218544E0,9.887947E0,1.1529249E1,6.0484157E0,1.3563907E0,9.631541E0,1.2510297E0,3.4113382E2,8.079021E0,3.2541625E0,1.23054495E1],"tree_param":{"num_deleted":"0","num_feature":"5","num_nodes":"27","size_leaf_vector":"1"}},{"base_weights":[-2.4037904E-4,3.22703E-3,-2.651665E-1,9.874038E-3,-1.3031814E-1,-7.5237274E-2,-4.0838312E-2,3.2049653E-3,2.1168478E-1,-6.5177745E-1,-5.590436E-2,8.492644E-2,-3.0487657E-1,8.7956164E-4,-6.722807E-2,6.5430276E-2,-6.2486995E-3,-1.623074E-2,-7.777297E-2,1.1592632E-2,-2.884523E-2,9.732482E-3,-7.297876E-2],"categories":[],"categories_nodes":[],"categories_segments":[],"categories_sizes":[],"default_left":[0,0,0,0,0,0,0,0,0,0,0,0,0,0,0,0,0,0,0,0,0,0,0],"id":49,"left_children":[1,3,5,7,9,-1,11,13,15,17,19,-1,21,-1,-1,-1,-1,-1,-1,-1,-1,-1,-1],"loss_changes":[7.071769E-1,6.758839E-1,1.0562693E0,9.7489876E-1,1.3644866E0,0E0,2.1079276E0,2.6595323E0,2.8528967E0,1.4593816E-1,1.3396156E0,0E0,1.2337229E0,0E0,0E0,0E0,0E0,0E0,0E0,0E0,0E0,0E0,0E0],"parents":[2147483647,0,0,1,1,2,2,3,3,4,4,6,6,7,7,8,8,9,9,10,10,12,12],"right_children":[2,4,6,8,10,-1,12,14,16,18,20,-1,22,-1,-1,-1,-1,-1,-1,-1,-1,-1,-1],"split_conditions":[1E0,3.5E0,2.9E0,9.6666664E-1,3.53E0,-7.5237274E-2,3.02E0,9.5E-1,9.777778E-1,2E0,3E0,8.492644E-2,2.1E1,8.7956164E-4,-6.722807E-2,6.5430276E-2,-6.2486995E-3,-1.623074E-2,-7.777297E-2,1.1592632E-2,-2.884523E-2,9.732482E-3,-7.297876E-2],"split_indices":[1,0,0,2,0,0,0,2,2,3,3,0,4,0,0,0,0,0,0,0,0,0,0],"split_type":[0,0,0,0,0,0,0,0,0,0,0,0,0,0,0,0,0,0,0,0,0,0,0],"sum_hessian":[7.6790454E2,7.589589E2,8.945596E0,7.2385614E2,3.5102787E1,2.078191E0,6.8674045E0,7.01684E2,2.2172094E1,3.4147656E0,3.168802E1,1.064022E0,5.8033824E0,6.9690314E2,4.7809334E0,7.9504924E0,1.42216015E1,1.1672584E0,2.247507E0,1.8511377E1,1.3176642E1,3.3774214E0,2.4259613E0],"tree_param":{"num_deleted":"0","num_feature":"5","num_nodes":"23","size_leaf_vector":"1"}}]},"name":"gbtree"},"learner_model_param":{"base_score":"[2.376E-1]","boost_from_average":"1",